2081 100
0 0.0015697122 0.0034547753 -0.0016783536 0.0011301448 -0.0027328443 0.004710155 0.0031540613 0.002014726 -0.0030774726 0.0027870138 -0.0010952663 0.000381475 -0.0017687258 -0.0043541268 -0.0011568344 0.0011263215 0.0047589275 0.0019038225 0.0014480929 -0.0014105968 -0.0021701623 0.004202002 0.0019158999 0.0011773951 0.0027801364 0.002074971 0.0030674923 0.004984713 0.002447143 0.003814558 0.0039650085 -0.0010656392 4.3499273e-05 -0.0009640912 -0.004214449 0.0019995878 0.00042176482 0.0043435064 0.0011620615 0.0014357069 -6.187607e-05 0.002252734 -0.0048604077 -0.0028257533 -0.0019961204 -0.004317018 0.004159185 0.003498412 -0.004693169 -0.0018095411 -0.004493456 -0.0026839052 0.004509175 0.004212679 0.0025149942 -0.0039015391 0.0020563279 -0.0031713033 0.0005839253 0.002416018 -0.0017687598 0.004013095 -0.0012680923 0.002256457 0.004662169 -0.0025825826 -0.0034176914 0.00054079917 -0.0043185195 0.001693237 -0.0018429937 -0.0018849754 0.0017964814 0.0021211787 0.00030590757 0.004804498 0.0039106803 0.004463692 -0.0043119346 -0.004188311 0.0007548885 -0.003551696 0.0008668987 -0.0045573222 0.0019880428 0.00032796746 0.0041051605 -0.004176509 -0.0034622583 0.0049099554 0.0003788534 0.0035821176 0.004050749 -0.0005363133 -0.004266685 0.00046330746 -0.0016041734 -0.0015846753 -0.0034896294 0.0011280029
, 0.0023046292 0.0017200169 0.003875941 0.0025395674 -0.0047480105 0.0030332722 -0.0015897827 -0.004478569 0.002207044 -0.0022634487 -0.0010095248 -0.0023114858 0.0048647653 0.002748814 -0.003931036 -0.0011486426 -0.0040089153 0.004494248 0.0042676823 -0.0007569398 -0.004213662 0.0011119738 -0.003320524 0.001241889 0.0005982145 0.004027222 0.0035733636 -0.00065754505 0.0025282744 -8.784409e-05 -0.000120203404 -0.0006768409 0.0046386407 0.0025785575 0.0045582587 -0.0034702802 0.001057413 0.0012930176 0.00040079432 -0.00023359971 -0.0022242707 0.002866581 -0.0038760882 -0.0036366077 0.0044581005 -0.001210991 -0.004952504 -0.002137934 -0.0025061965 0.001226002 0.0025233233 0.0026327074 0.00060323783 0.0013696803 0.0018472363 -0.0042476053 -0.004054924 0.00121579 0.0015202934 -0.0011785938 0.0030351724 -0.00084695336 0.0007540683 0.0006229027 0.0047416887 -0.0028173558 0.0038651137 -0.0002710142 0.001510633 -0.0032432547 -0.0013301556 0.0034853413 0.001560755 -0.00437928 0.00071017427 -0.004635343 -0.00302033 0.0003340385 -0.0037402494 0.0031931275 -0.0023096097 0.002683628 -0.004275197 -0.003601391 -0.003445479 0.00018062886 -0.0036809912 -0.0036704533 -0.002289668 -0.0037623183 -0.00032904412 -0.0028013606 -0.0011306214 4.257639e-05 0.0010844937 -0.0036796052 0.00031223785 -0.004508312 0.004323999 -0.0023409883
公 0.004511119 -0.0040335287 0.001062214 -0.0003531523 -0.0017689232 0.0009423558 0.0024567733 0.0010247151 0.00047403402 0.0040292065 0.0036251051 0.00338735 -0.0030763946 0.0016677307 -0.0039862925 -0.0026886954 0.0012957609 0.0044155503 0.0030639512 -0.0049084737 0.00052191375 -0.0023557679 -0.00428235 -0.0028178908 -0.00046738065 0.0031021575 0.0038556443 0.004527473 -0.0021220166 0.0024714498 0.0040588845 -0.00015165024 0.003808629 0.0016144715 0.00067532784 0.0010970804 -0.00373258 0.00022693077 -0.00095648615 -0.0048281373 0.0022296042 -0.002504531 -0.0044029737 -0.0049046967 -0.0009008555 -0.00017510231 -0.0001606851 -0.003269116 0.0043584374 0.0018186559 0.004899285 0.002762571 0.003086884 0.00030712952 0.0027890592 0.0019257633 -0.00076009065 -0.00402627 -0.0036026766 -0.004916135 -0.004511173 0.0026001805 -0.0041750437 -0.0015110433 -0.004278678 0.0006780681 0.0040101334 -0.0016002898 -0.0041215247 0.0002494825 0.004217657 0.003869839 0.0022692906 -0.0005265449 -0.00014813457 -0.004211659 0.0020594003 -0.0025724208 -0.0028841542 0.0018673096 0.00044401482 -0.0034455839 -0.003168398 0.001059328 0.00041742422 0.0014910327 -0.0012979645 -0.003804739 -0.0035565963 0.00025999916 -0.0031466167 -0.0041916408 -0.0033963053 -0.0008151802 -0.003461772 0.004634752 0.00270769 -0.0023675838 -0.0005500961 0.004940967
司 0.0017984469 -0.00080610404 0.0040776148 -0.00058300607 -0.0033861264 -0.0036449647 0.00081032637 0.0037253704 0.00023917962 -0.002536214 -0.0044675684 -0.004868376 0.0007652161 -0.0044556633 -0.00058733375 -0.0047329143 -0.0017309185 -0.0013210096 0.0006447303 0.0024040558 0.0010649508 0.00075454835 0.0037504372 0.003568805 0.004902573 -0.0012299311 -0.00024962003 -0.0014748811 -9.1804195e-06 -0.0011012424 -0.0023987074 -0.0047512287 -0.0049044895 0.0040408424 0.0044836337 0.00082871254 -0.001226631 -0.0027251055 -0.0027998765 -0.004130387 -0.0047447956 -0.0023609733 -0.0012296397 -0.0017565254 -0.0008901704 -0.0013561677 -0.004837697 0.00048178172 0.002587075 0.004739635 0.000874824 0.0034662448 -0.0034325197 0.0046450314 0.00033514964 0.003683308 0.0008890666 0.0027117934 0.0044437344 -0.0018503504 0.0010076364 -0.00045546918 0.0008246414 -0.0026902736 -0.002467135 -0.00077178 -0.00020483641 -0.004297287 0.004341032 -0.0022648422 -0.0006376267 0.0030896391 0.00021219689 0.004634534 -0.0044024717 -0.00437729 -0.0026683407 -0.0035945459 0.0030991074 0.0024690984 -0.0010487727 0.0010802944 0.00026047885 0.0036857272 0.003375527 -0.004037234 0.00040526816 0.0015521642 0.0036344277 -0.0005554339 0.004186704 0.0007340528 -0.0023892112 -0.00031440472 0.00037902867 0.00083417667 -0.0026931965 0.0041985335 0.0016447323 -0.0040452965
资 -0.004169898 -0.0035633629 0.0015267888 0.0026127489 -0.004157847 -0.0004251944 -0.0007753205 -0.0027199336 -0.00088859664 -0.004749587 0.003666487 -0.0036886677 -0.0038487806 0.0005223236 -0.00038792455 0.0012239758 -0.002004746 0.00015501777 -0.0032478531 0.0018311855 0.0031494352 -0.00017994789 -0.00015448671 0.0027394625 0.0028951457 0.0016495034 -4.6294033e-05 -0.0006167442 -0.003931736 -0.004575178 -0.0031774996 0.0018588738 -0.0026690713 0.0046092463 0.0043498753 -0.0036418317 0.004173962 0.0028903703 0.0006745622 0.0016625989 -0.0009557999 -0.0022863352 0.0010533306 -0.0036381027 0.0041384725 0.0033187629 9.573542e-05 0.0022957744 -0.0041572293 1.1021803e-05 -0.0043926327 -0.00078724243 -0.00055919576 0.00020048309 0.0009425202 0.003709131 -0.002614254 0.0031019326 -0.0036333904 -0.0045698974 0.0040418343 -0.0023656376 -0.0026941379 -0.00023201063 0.004653128 0.0014917727 9.08881e-05 -0.0016918413 0.0027048122 8.301792e-05 0.0019404691 0.00010048144 -0.0014711835 -0.0048295055 -0.0048117586 0.0047981353 -0.0011700024 0.0035882161 0.0047895038 -0.0034847455 0.004454941 0.004802501 0.0046925447 -0.00034041976 -0.0012404015 -0.0038363526 -0.0020744477 0.0049932105 -0.0048548505 -0.0031467061 -0.0014706407 0.0047575757 -0.0037354564 0.003104249 0.004157966 -0.00037059278 0.004281899 0.0010069567 -0.004285749 0.0032394992
有 -0.0007023602 -0.001659942 9.9892124e-05 -0.0033407812 0.00051139836 -0.00484154 0.00063744566 -0.004248414 0.0016501253 -0.004535634 0.003695933 0.00036549807 -0.002159545 -0.004273103 0.0037217678 0.0042349948 0.0012644856 0.0007181463 0.0025229428 0.00084495434 0.0016662984 -0.0015784269 -0.00067567517 0.0030407119 0.0007523082 -0.0008705682 0.0021085981 0.0041547497 0.0037303935 -0.0015343364 -0.0040607224 0.0008054889 0.003908009 -0.0024284835 0.0006944843 -0.0009045808 0.002828812 0.000905006 -0.0012704685 -0.004554184 -0.0023272096 -0.0048726136 0.003284067 0.004042939 0.0038450572 0.00080912065 0.00296786 0.0021532162 -0.0035692053 -0.00058536086 0.00029391982 -0.0003372662 -0.004023591 0.0018535485 0.003809748 0.001144872 0.0014887376 0.001076594 -0.0010098492 0.00354092 -0.0036110946 0.0029206655 0.0046122833 -0.0013539008 -0.0011998529 -0.00069062365 -0.0012185266 0.0010750181 -0.0025243275 0.0036852653 -0.0022469054 -0.0020523816 0.0012847031 -0.004366644 -0.00056447973 0.0027990027 -0.0036002027 0.0011255102 -0.0044457023 -0.003136916 0.0030602107 0.004312224 -0.004951708 -0.00012069373 0.0005390167 -0.001547652 0.0033148124 -0.0014464045 0.00028139527 -0.0038778742 0.003487939 -0.0035336635 -0.004848732 0.00083999685 -0.0036884395 -0.004417656 -0.000996523 0.0023341218 -0.00058402354 -0.0046779527
1 0.003314522 -0.0039943354 0.0032991811 0.003338853 0.004196212 -0.0011579166 0.001966928 -0.0015496291 -0.0020513101 -0.003121279 0.0043817363 0.00015432732 -0.0030975754 0.0017077146 0.00062622136 -0.003033566 0.0021880178 -0.0015328774 0.0031953454 -0.0036892048 0.0010094239 0.0021157248 -0.0023732278 0.0031133518 -0.002305484 0.0049573034 -0.0024997322 0.00017392354 -0.0027600853 0.0016346244 -0.0041535213 0.004694373 -0.0013098315 -0.00083726255 0.004301811 0.0037048906 -0.0007508672 0.0006750479 0.0024775323 0.0041084117 -0.0023321998 0.0017949395 -0.001289581 0.0005662935 0.0017328373 0.0029061795 -0.0031027251 -0.0024814098 -0.002768755 -0.000743643 8.746228e-05 0.0016215015 0.000116025694 -0.003660884 -0.0019273984 0.0025248816 -0.004682548 -0.0017118884 0.0012711799 -0.0015770292 0.0011421493 -0.002669463 0.002348977 -0.001241829 -0.00027490748 0.0032296148 0.002373742 0.0027904897 -0.0032894444 -0.00474972 0.0032774652 -0.00017416861 0.0005191978 -0.0013359017 -0.0011753405 0.0041536833 -0.0025737286 0.0008917421 -0.0014001178 0.0011015503 0.0013542006 0.0021212853 0.0006240596 0.0021740685 0.0045522517 -0.00042119378 0.0017832504 -0.0011099078 0.0010797143 0.00041950322 -0.0018791929 -0.0048369314 -0.0019282748 -0.001738731 -0.0038320331 -0.0022675002 -0.0042065782 0.0033039788 -0.0012413278 -8.5328225e-05
股 -0.0016244741 0.0012682129 0.00022287593 -0.00023994614 -0.0005005023 0.0032123108 0.004380401 -0.0014106907 0.00011925663 0.0027794617 0.003348958 -0.0044888593 0.0014386914 5.2541014e-05 -0.003504452 -0.0027085042 0.00043133783 -0.0003853208 0.0018749026 0.0012413724 3.260636e-05 0.0010769962 -0.0019210207 0.0020420959 -0.003557652 0.0027586122 -0.0016250261 -0.0011324679 -0.003392183 0.003919157 -3.2645312e-05 -4.936413e-05 0.004841978 0.0002166282 0.0026459375 0.0026377959 -0.0017852335 -0.004276443 0.00056505686 0.00066893565 0.0036846485 0.0040592398 -0.0018582189 0.0043341904 -0.0005505718 0.0034956126 0.0008842423 -0.0013749158 0.0017142564 0.0021493821 -0.0018154219 -0.0033464641 -0.0016912231 -0.0001891391 0.0015514141 -0.00046661065 -0.0005752556 0.0021138056 0.0033690485 -0.0003502465 -0.0022001683 0.0004706432 0.0038625447 -0.0028422743 0.00022267467 0.004057333 -0.0017520562 -0.004245239 -0.004348747 -0.0028003892 -0.004192974 -0.00089233794 0.0025499957 -0.0023321027 -0.0028738836 -0.0036269897 -0.0016838684 0.0035049578 -0.0010516668 -0.0004485966 0.0013721925 0.00066107936 0.00029940877 0.003604307 0.0011888923 0.0013896717 -7.6281416e-05 -0.0007421883 -0.0009475541 0.00096004753 0.0009510253 -0.00037062608 0.0031364944 0.0032384002 -0.0010214492 0.0045704306 0.001070608 -0.004610525 0.003949037 -0.0027167727
的 -0.0048518297 -0.00077997014 -0.0033960545 -0.0028648828 0.0019434855 -0.001301413 -0.001826624 0.0048062922 -0.0034179557 -0.0016835893 0.0009270521 -0.0048315125 0.0011489934 -0.0020770982 0.0018761365 0.0013216606 -0.002972863 -0.0035004402 -0.0016554523 -0.00492595 -0.00092380034 0.0037234677 -0.0049289195 -0.0039285203 0.001119861 0.00078508764 0.004031855 -0.0033510437 -0.0017707691 -0.0012532604 -0.0036484986 -0.0031278643 0.0021254963 0.0017462628 -0.0009834669 -0.00017660746 -0.0012571039 0.0036464208 0.0015485389 0.000487487 -0.0015540493 -0.0044916915 -0.0013141126 0.0038548564 0.0043337476 -0.0019225134 0.002838373 0.0039046637 -0.004563276 0.0024167758 0.0041315365 -0.000717869 -0.0032897652 0.0044587376 -0.0015251832 -0.003985219 -0.004942109 0.0017681383 -0.0005356129 -0.0037669137 -0.0021480424 -0.0045787473 -0.00039655296 0.0037850025 0.00051596976 0.0031749352 -0.0018720898 0.0030322648 0.00041524819 0.0028719273 -0.0021965902 0.002950332 -0.0046259384 -0.004933262 -7.846604e-05 -0.0016806831 -0.0023409983 0.0005770004 0.0012374931 -0.0010900178 -0.0024146787 -0.00040556965 0.0014191323 -0.0038550338 -0.0032838234 0.0013216559 0.0011364796 -0.0021237016 -0.0020139785 -0.0034157182 0.0023034636 0.0018013703 0.0042949226 0.0023614136 -0.003665428 -0.000104005245 -0.0010912722 -0.004713744 -0.00041948125 0.0005500849
限 -0.004972499 0.004262802 0.0009647143 -0.0024850487 0.003461808 0.000468918 0.0010767884 -0.00093591213 0.004718794 0.003914558 -0.004776217 0.002241571 -0.003501751 0.0002761946 -0.0008368182 0.0034392735 0.0037243797 0.003075515 -0.0010583857 -0.0010416267 -0.0021383823 0.004328554 0.003873146 0.0019358769 0.0019551245 -0.0048349644 -0.0020664951 0.0046415078 -0.0001661262 -0.0006796784 -0.0026329227 0.0001303673 0.00019392968 -0.00031268428 -0.0030670592 -0.0022800893 -0.001892301 -0.00044055423 0.0013012051 0.0010806763 -0.00031448912 0.00059040735 0.0025056181 -0.00077201414 -0.0015701774 0.0029195352 -0.0017692231 0.0030688143 -0.0013504451 0.00016522282 -0.001787387 0.0015128597 0.0019697403 1.5271062e-05 -0.0009766695 0.0046198303 -0.00293507 -0.0021195768 -0.0032191176 -0.0037003965 0.00032651998 0.0024080477 0.002352438 -0.0013078039 0.0046154754 0.004809557 0.0016417496 0.0023464514 0.0027772042 -0.003103422 -0.003137753 -0.0010114508 -0.0014314805 0.004357421 -0.0029442848 -0.0036224402 0.0043029096 0.00044833572 -0.0015045571 0.003917628 0.0008010997 0.0012596363 -0.003305939 0.0021993387 -0.0013572052 -0.0033550214 -0.002768459 -0.000615892 0.0040862267 0.0049190354 0.003439944 -0.0014459668 -0.0034797965 0.0026279553 0.00030980658 -0.00060113793 0.0032416307 -0.00048210224 -0.0039243433 0.00078080705
。 0.002954276 0.0044328007 -0.0009042069 -0.0027726376 -0.0010023435 -0.0043964935 -0.00034832562 0.0025362931 -0.00021121338 -0.003993944 0.0012510077 0.0011563108 0.001953508 -0.0033876721 0.00430889 0.00027222256 -0.0006673552 0.004452734 0.001820274 -0.00016652081 0.0022358252 -0.0034407822 0.0021229691 -0.0026332089 -0.002518236 -0.0010520689 0.0041902615 -0.004598001 0.00081826624 0.0033526118 -0.001751425 0.0025485046 -0.0009813895 -0.00025140084 -0.0027084837 0.002339504 0.0049348623 -0.0013360346 -0.0011526917 0.003906722 0.00070638495 -0.0032433334 -0.003616164 0.0022181834 0.0046619214 -0.004022618 -0.00073642563 0.0012570358 -0.0030948198 -0.0038889425 0.00034844966 0.000930278 0.0042930846 0.002902531 0.0012143473 0.0011803189 0.0037138658 -0.0037944983 0.0025619054 -0.0048182607 -0.0031136167 -0.0028236676 -0.0040739784 -0.0047897007 0.004829901 0.0029128254 0.003998221 -0.0008336979 0.0036208495 0.0011192154 0.0012833269 0.0016674103 -0.0031320145 -0.0025210248 7.1360664e-05 0.00091737806 0.0041527087 0.0026420455 -0.0028448473 0.002596228 -0.0014203523 -0.0048480066 0.0047912225 -0.002486353 -0.0028283198 -0.0011537883 0.0031041687 0.003914104 -0.004054795 0.0011303555 0.002362587 -0.004651608 -0.002831315 0.002823441 0.0005589177 -0.0042375633 0.00377911 -0.004423879 -0.001358577 0.0016537985
2 -0.0036018065 -0.0049721245 0.003924389 -0.0030808332 0.0036086887 0.0038899628 0.004043943 0.004628998 -0.0012797152 -0.0040767244 -0.0020385399 -0.0011568766 0.0029111472 -0.0024604497 0.0044584465 0.0031980854 -0.00016932172 -0.0023117792 -0.00302301 0.0017606022 -0.0045857485 0.0006099043 0.00078267686 0.004168038 -0.004161252 0.0029230134 0.0040409104 0.002507205 -0.00090455014 0.0019003904 0.004896854 -0.0023560212 -0.004206741 -0.0035474522 -0.0011966055 -0.00038598152 0.0036548914 -0.00480559 -0.0017893559 -0.0009731494 0.0027859854 0.00450799 0.002739843 -0.0016181739 0.004559928 0.001840037 0.0005990804 -0.0019926245 -0.0016495393 0.003296331 -0.0020767495 0.00026401252 0.00048365205 -0.004395741 0.00023227741 -0.003743452 7.200411e-05 0.002506122 0.0002810371 0.0007952379 0.0020878185 0.0030946012 -0.0024289675 -0.0006040383 -0.0012447742 0.0011996286 0.0006894469 -0.002627408 0.0038577064 0.0027355189 0.004688506 0.0035901999 -0.00079095934 0.0048801657 0.00029063754 -0.003949951 -0.0009465985 0.0029146948 -0.0027258196 -0.0039305096 -0.0040549003 0.00100572 0.0009852502 -0.004527859 0.0031042062 -0.0041281832 -0.0025483328 0.0006810258 0.0014889421 0.0029078047 0.00041761546 0.0035812187 0.0024478259 -0.0025132257 0.003567696 0.0012583898 -0.0015020134 -0.0023839292 -0.0036902654 0.001097535
本 -0.0011673858 -0.0017500566 0.004538947 0.001672097 0.0003060388 -0.002070929 -0.0002064351 -0.0006044979 0.00435109 -0.0035408481 -0.0044646687 0.003540321 -0.004734735 -0.0020725648 -0.0012091858 0.0016767383 0.0047595385 -0.002661147 0.003039245 -0.002768544 0.0040772352 3.6929086e-05 -0.0020721995 0.0034116483 0.00075655244 -0.002828597 0.0049948925 -0.0008328187 -0.004719284 0.0012366619 -0.0010920946 -0.00443382 9.4322204e-05 -0.004482043 0.0005394267 -0.0031077722 0.004485107 -0.004424689 0.00032452474 0.003863533 0.004824745 -2.767536e-05 0.0031517695 -0.00082982646 -0.0012927562 0.00032854837 0.00019025887 0.0015142637 0.0019868112 0.00097162183 -0.0049076187 0.00023102999 0.0023219953 -0.0014124966 0.0031893267 -0.00048185498 -0.0028109667 -0.0048589064 0.0018421334 -0.0009159854 -0.0012829966 -0.0037665511 -0.00011434356 -0.0029135349 -0.0045437603 -0.00068640226 0.0036235615 -0.0029107814 -0.002562835 -0.0007262447 -0.002840674 -0.0025952682 -0.0024784661 -0.0013451225 0.004114432 0.004489227 0.0014276151 -0.0010874126 -0.0040706517 -0.0019171495 0.0007568106 0.0017424884 0.0045085833 -0.0009385906 -0.0033069446 0.000826869 -0.001076216 -0.0014303356 -0.004575647 -0.0047996305 -0.00039408816 0.0016390409 -0.0020985804 0.00041102813 -0.0018450073 -0.0013469569 -0.0004223985 0.0028592641 0.004277725 0.0030846864
( 0.0009882305 -0.0031001358 0.0012027532 0.00011026316 -0.0040607206 -0.000985111 -0.0033798937 0.0020042884 0.0046821614 -0.004823998 -0.0005968685 -0.0017314336 0.004610937 0.0009138962 -0.004036435 0.0033742478 -0.00030779367 -0.0018572208 -0.0007573748 -0.0031549707 0.0022565427 -0.0022400985 -0.004781438 -0.0033753177 -0.00085534743 0.000828371 0.0038398246 0.00054665015 0.0011418835 -0.0041685062 -0.0012407731 0.00086846016 -0.00029419217 -0.004481191 0.0036444273 0.000524552 -0.004664465 0.004359635 -0.0007848163 0.0012313653 0.001191333 -0.0028215148 0.00307575 0.0010992511 0.0011060333 -0.0021717835 -0.0042388486 0.00041605445 -0.0035766172 -0.001062924 -0.0028102242 -0.00420898 -0.0018561042 -0.0033310486 0.0037740762 0.0032508275 -0.004553244 0.0002675243 -0.000105111576 0.0029446997 -0.0003785945 0.0019899365 -0.0034096292 -0.0015978753 0.0045927856 -0.0008164549 0.0020168563 -0.003658511 -0.002277106 -0.001698444 0.0032417316 0.00025563812 -0.0036276602 -0.0005042415 -0.0034045388 0.0038745673 -0.00013932333 0.0033239156 -8.222583e-05 0.0036551899 -0.00066098716 -0.0039647096 0.0032446664 0.0045233327 0.003898625 0.004839225 -0.0046090675 -0.004057207 0.0018409005 -0.0017485612 -0.0034473285 -0.0029061567 0.004753084 -0.004137018 -0.00022939681 -0.0023482274 -0.0038524917 0.0036505987 -0.004428657 -0.0049481955
) -0.0029857873 -0.002957435 0.0027948886 -0.002198783 -0.0038575823 -4.624808e-05 0.0008402294 0.003842158 0.0022035325 -0.004109412 0.0018903979 0.00420277 -0.0028846748 -0.0037983381 0.0022534013 -0.00384168 0.004201857 -0.0019938338 0.0037469205 -0.00024967108 0.0049482086 -0.00073343876 0.0010395688 0.0033796423 -0.0037779412 0.003003446 -0.0018671126 -0.0019781217 -0.00457176 -0.0029965697 -0.0032341813 0.003573468 -0.0012464946 -0.00065313675 -0.0005619201 -0.0015577673 0.002932302 -0.0034504975 -0.00020807756 0.0030804307 0.003283737 -0.0013000526 0.0026489783 0.0029469696 0.0032932016 -0.0038642916 -0.0012634792 -0.0030404977 0.0008839202 0.0039177015 -0.004641811 0.0017630643 -0.0044101104 -0.0005708321 0.00025288868 0.001754298 0.002452051 0.0005888424 -0.0013564165 -0.0037535157 0.00093832356 0.004470495 -0.0036432995 -0.0028925168 -0.00044384206 0.0009906346 0.0010762711 -0.0045459345 -0.00091219874 0.0015681769 -2.3272512e-05 0.0034370264 0.0035171474 -0.0036804338 -0.0015521231 -0.0016336982 0.0040436313 -0.0024291358 -0.00023270413 0.0002781862 -0.0035896183 0.0033611606 0.0039920546 0.004850104 -0.0042149737 -0.0043035164 -0.0021800508 0.0026264957 0.00019845164 -0.0031575344 -0.0019627942 0.001529279 0.00097076606 0.00023483062 -0.00079767796 0.0047428664 -0.002058041 0.004832778 0.001016004 -0.00436365
以 -0.00084520737 -0.0037347488 -0.00041759125 0.00492918 0.00045056024 0.00036549152 0.00053691264 0.0033988252 0.0015225519 0.004556603 0.0042872103 0.0010339346 0.0015433086 0.001175383 -0.0037865099 0.001967887 -0.0005578183 -0.0010696708 -0.0023484724 0.004064472 -0.0019874806 -0.0024987739 -0.00069742184 -0.003017708 0.0014699885 -0.00096992217 0.004006093 0.00062021025 0.0017694146 -0.00032367397 0.0044329744 -0.0016233757 -0.0027450512 0.003895287 0.0010636407 0.0018040059 -0.0011049062 0.0003018905 -0.0046935473 0.0024995434 -0.003940424 0.0018723276 0.00044526567 0.0012724092 0.0012951869 0.0010870211 -0.0036424305 0.000866469 0.0032071355 -0.0007584504 0.0033476646 0.004452406 0.0023492947 -0.0013256378 -0.004816066 0.0007487206 -0.00025335877 0.00016382725 0.0021738992 0.0028288392 0.0047971727 -0.0029453998 -0.0036446326 -0.0033724867 -0.0014256288 0.0038592336 -0.0017276662 -0.00056911015 -0.0039223996 -0.00036575896 0.003598031 -0.00043135576 0.00077985023 -0.0032896139 0.0010420046 -0.0001501966 0.00015440193 0.0043509696 -0.0022697211 0.003100213 0.0010777222 0.0004947791 0.0015464884 -0.0041235955 -0.0019119075 0.0023947568 0.001394473 -0.0011757431 -0.0001539696 -0.0029617494 -0.002120043 0.0044859787 -0.004207358 -3.5836427e-05 0.0047251643 -0.0025079956 -0.0020103254 0.0005952308 -0.0014646146 -0.0031279
元 -0.0013019979 -0.0019648029 -0.00096866273 -0.0038539832 0.001938923 0.0011789569 0.0004322593 -0.00342242 -0.0040465523 -0.004217239 0.004435066 -0.003996928 -0.00087178487 0.0021751258 -0.0028440238 0.0044354307 0.0023379722 0.0046140333 0.0018738514 -0.00010365907 -0.000327646 -0.0019009525 -0.0022895602 -0.0018834994 -0.0030025824 0.004314641 -0.0034423992 0.0025133546 0.0020759117 0.0024491511 0.004674815 -0.0034713077 0.0014133299 0.0014922249 0.0039232397 -0.0023063251 0.00063508196 0.003772207 -0.002600564 0.0007009591 -0.0024792857 0.0036040382 -0.0030425568 -0.0045009595 0.0035462007 0.0018993238 0.002114993 0.0028402803 -0.0017034446 0.0026374247 -0.0038907884 0.003696351 0.0047501475 -0.0030636564 0.0023045202 0.0035283377 0.0040624416 0.00017830639 0.00052274525 0.00015868079 -0.0045913323 0.0046851966 -0.0007995481 0.0034082343 -0.0015060515 0.004964212 -0.00043433433 -0.0030422797 -0.0048563215 0.0048810304 0.003289662 -0.0031446558 -0.002174791 0.0006701944 0.004188289 0.00035111446 -0.0018233844 0.00020362767 -0.0025681125 0.0026494707 -0.0036669536 0.00051176036 0.0018966853 -0.002766464 -0.003943263 -0.0042545376 0.0027224347 0.0028597892 -0.00058196485 0.0044155386 -0.0018847467 0.004013896 -0.0034931186 -0.0037812265 0.0047457265 -0.0015243746 -0.0028879005 -0.0001946875 -0.000810678 -0.0044759726
为 -0.004851017 0.0037543292 -0.004118417 -0.004959962 -1.989617e-06 0.00033954388 0.0005413686 -0.0018158313 0.0022555985 -0.00063465844 0.0046627186 -0.0039626737 0.002384318 0.00388626 0.0048003155 -0.00012453906 -0.0032136377 0.0023695824 0.0020918404 0.00032791754 -0.0032861498 -0.0012362719 -0.0018429818 -0.0042172596 0.00395345 0.0044690883 -0.004841121 -0.002858689 -0.0009821741 0.002201205 -0.0026556503 -0.002831709 0.001785403 0.0048504006 -0.0033281446 -0.0015870029 -0.0009680612 0.0005180255 -0.0039352872 -0.00254013 0.0032406426 -0.00055463257 -0.0017395419 0.0031261889 0.0030369463 -0.0030127063 0.0018142804 0.0020748626 0.0030339728 0.004086467 -0.004287508 -0.0013583875 0.00052143354 -0.0017166967 0.00022101763 -0.0028317948 -0.00012936631 0.00041152164 -0.00482744 -0.0029154392 -0.00032958994 -0.0032308656 0.00055437186 -0.0021878786 0.0031834745 -0.0008064241 -0.0021404787 -0.0026230554 0.0042541884 0.00035129345 -0.0017999961 0.0033473687 -0.00020425544 0.0025255615 0.0020683324 0.00026528767 -0.004999517 -0.0035926532 0.004548299 0.003897095 -0.00045722083 0.0010777209 0.0040469123 0.0011408632 0.0039903987 -0.0018637917 0.0019099085 -0.0037388802 0.0046684826 0.0013787897 -0.0018235514 -0.004573919 -0.002264325 -0.00016090885 -0.00449528 -0.0042900327 -0.0008457877 0.0004336045 -0.0036296071 -0.0024401913
. -0.0001291836 0.0044903588 -0.0011015781 -0.0020970004 -0.00073129137 0.0014230529 -0.002179353 0.0019542794 0.0003386754 0.001820706 -0.004485738 0.0039956635 -0.0037426415 0.0010546815 -0.0033375788 -0.0019910173 -0.0030786693 0.0010416919 0.0017385834 0.00065556297 -0.00024799292 0.000528148 0.0020822354 -0.0032860283 0.004973642 -0.0010029373 -0.003121185 -0.0034845623 -0.00032215388 -0.00047373355 -0.0021296756 0.002533018 -0.003042116 -0.0030898298 -0.0009927781 -0.0006027163 0.0034765897 -0.0031160216 -0.00029443853 0.0029965304 -0.004091852 0.0042140447 -0.0010173806 0.0045226524 0.0032139954 0.0007337116 -0.0034426933 0.0037752166 -0.0017794028 -0.0040640053 0.003235997 0.0038079908 0.0025752413 -0.0027057778 0.0031445567 -0.0011637807 -0.003010747 -0.004727094 -0.0017027854 6.722596e-05 0.0038244843 0.002048384 -0.0020927233 0.0014263737 -0.0015256674 -0.0015398882 0.004786359 -0.0019444919 -0.0035549507 0.004212759 -2.4297875e-05 -0.0017296019 -0.0048016626 0.0005420451 -0.00063407916 -0.0034121186 -0.000892208 0.0010187587 0.0031798624 -0.0031298553 0.0034461727 -0.0035831933 -0.0028558294 -0.0003281102 -0.0028792298 -0.0029721102 -0.0044605252 -0.003496911 -0.0038521441 -0.0038138432 -0.0010078787 0.00041688114 -0.0022291266 0.0033814537 -0.0032562746 0.004197288 0.001961453 0.0026993973 -0.00024697342 -0.0020729
5 0.0010650677 0.0047721616 0.0035327198 -0.0017420686 0.0037877706 -0.0036725905 0.0010758644 -0.0028731606 0.0025443116 0.0046173776 0.00087010255 0.0008508692 0.00453342 -0.0024318018 0.0007516065 -0.0019350275 -0.0039280457 -0.0037738325 0.0026684212 -0.0033848295 -0.0013686917 0.0031864569 0.003789406 -0.0034977552 -0.0021456578 -0.0037943928 -0.0013952714 -0.0015257146 0.00026406706 0.002861627 0.003144975 -0.0020351247 0.0036669264 0.0005811202 0.002281963 0.0028259584 -0.00070250826 -0.004935731 -0.00037761498 -0.0032363203 0.0010931918 1.3294776e-05 -0.00017089596 -0.0010357646 -0.002409012 -0.0010690733 -0.0048218947 -0.003437769 0.0022331176 -0.0015974534 -0.000998164 -0.0016967214 -0.0037003704 -0.0012415131 -0.0032547629 -0.000116978896 0.0032534036 -0.0029273692 0.0029670375 -0.0045859385 0.004457241 0.003048372 -0.003674976 -0.0011620848 -0.0034118511 -0.0041130497 -0.0041685463 0.00499765 -0.0028925682 -0.00079074415 0.0041901427 -0.00076854357 -0.0006120905 0.0037285397 -0.0012216503 -0.004831544 2.3202474e-05 -0.0019210948 0.0028116787 0.00062496273 0.0016861841 0.004848762 -0.0027647212 -0.0030705018 -0.002606925 0.00063880294 -0.0032290209 -0.0049016224 -0.003639397 0.00028279758 -0.003076453 -0.000840656 -0.0012890111 0.0018798262 -0.002961223 0.0038526454 -0.002260202 0.004913542 -0.003181807 -0.003055325
“ -0.0046505267 0.0045119305 -0.0037732783 -0.0033175694 0.0046513826 0.0049203527 0.0021621808 0.0009175867 0.004685654 -0.0019770162 -0.00081803015 0.0034570924 0.0006699866 -0.0018777633 -0.0045167697 -0.0016241492 -0.0013344557 0.0015051207 0.004557978 -0.004652135 -0.0018195673 0.0038672308 0.0026437487 -0.0021711253 0.0016815941 -0.0022244412 0.004375511 -0.0011827578 -0.0045730295 0.0049174046 2.190571e-05 -0.0024902048 -0.0011353184 0.0029452548 -0.004082552 0.0033228735 0.0041206526 -0.0015984614 -0.0017406332 -0.0005774791 0.004446957 0.004300731 -0.00060536613 -0.004328199 0.004781977 0.0013105477 0.0046055075 -0.0039057184 -0.00011696969 -0.0033824944 0.0048544654 0.0033918798 0.0031132053 0.0049020755 -0.001515181 0.0049942937 -0.0021819093 -0.0030786565 -0.0049848356 -0.00066603965 -0.00393015 0.0044181016 0.0030362087 0.0049342983 -0.0045449757 -0.002404002 0.0008742533 0.002846185 -0.0002638351 0.0002174658 -0.0027494454 0.002041096 0.0012203954 0.002906711 -0.001251103 0.0010056806 -0.0016642815 -0.003415152 0.0021345338 0.003647845 0.0035996414 0.0009472544 0.001752181 0.0017692054 -0.003159267 -0.0012634341 0.0049439664 0.0042734765 -0.0038147953 -0.004383169 0.0027248804 -0.00071806693 -0.0020565756 0.0038887428 0.0009402913 -0.002976476 -1.2886895e-05 -0.004457738 0.0041179745 -0.0025487673
” -0.0008441526 0.0011680579 0.0007690972 -0.0039418773 -0.0014777489 -0.0021050854 -0.0025395218 -0.0009781838 0.003110935 0.00097146886 -0.0041941744 0.0017406042 -0.00056344416 -0.004060236 0.00429092 0.001738097 0.0016408623 0.002184791 0.0045770686 0.004186043 0.0016454363 0.0047267284 0.0038402982 0.002578774 0.004714158 0.0017029772 -0.00085997954 0.001224341 -0.0023336245 -0.0038614275 0.0011083346 -0.0004384547 -0.0030911788 0.0010200844 0.0049042753 -0.0034927272 -0.0010288125 -0.0028377709 -0.0017076355 0.00018837464 7.2880015e-05 -0.0001746548 -0.0020803444 0.0014702594 0.004418563 0.0034104032 -0.002871679 -0.002669117 0.0048982943 -3.5627312e-05 -7.943238e-05 -0.004268518 -0.003192596 0.0022797785 0.0013059491 5.681089e-05 0.0020834028 0.0031602606 0.0020824152 -0.003494546 -0.0046041007 0.0044894894 0.004689473 -0.004676465 -0.0012461492 -0.000492134 0.003476113 -0.0018704288 -0.0021619448 0.0025543857 -0.004639722 0.0020478026 -0.0048983092 -0.0045131776 -0.0042777467 0.0029874567 0.0017115888 -0.0030670376 0.0034935882 0.00424676 0.0036828546 -0.00027211293 0.004261392 0.00022366403 0.004634242 0.0012831357 0.0026403333 -0.0024145192 -0.0037791654 0.0031517379 0.0011422636 -0.003955782 -0.0011038679 -0.004375204 -0.004950105 -0.001300334 -0.00045647976 0.001943459 0.0022227454 0.0049582804
、 0.0035908774 0.0019630054 0.0049178866 0.0019695044 0.0023062795 -0.00474158 0.00026654045 -0.001552226 -0.0022064436 -0.0013299098 -0.0017247378 0.0017531385 -0.0004892192 -0.004530424 -0.0026852565 0.00014775673 -0.00021872587 0.0022873243 0.0020894054 -0.0010481786 -0.0018347867 -0.0011948178 -0.0034699065 0.0046539023 0.00054160034 0.0018595394 0.00011402985 0.0035915829 0.003958298 -0.0031171762 0.0001886618 -0.0031366325 -0.00039411025 0.0047394885 -0.0018942937 0.0021414827 -0.0025304637 -0.0030368078 0.0027280394 -0.0010409497 -0.0015717951 -0.0003003077 -0.0018740267 -0.004576922 -0.0028615452 -0.0018427212 0.0015549003 -0.00478755 -0.0015776111 0.0033418778 -0.0009197391 0.0022307711 0.0049952273 0.0036389984 0.003806921 -0.002304729 -0.0019085582 -0.0020785532 -0.00066586334 0.0032023229 -0.0016238355 0.0022296212 0.004125154 -0.0038008303 0.003607222 -0.0042701927 -0.0018904767 -0.0046485486 0.0010452708 0.0012802688 0.0016364466 -0.002848521 0.003420615 -0.0006903169 -0.0023252007 0.00013655164 -0.0017034019 0.00017744809 -0.004221605 -0.0021007203 -0.0010776715 -0.0015227557 -0.0021244038 0.00062284805 0.0016407097 0.0014493854 -0.0013329686 0.0046978914 -0.000691318 0.0027150135 0.004345716 -0.0028828916 -0.003421633 0.0010963968 -0.0029956673 0.0046886774 -0.003621874 -0.0014171099 0.0028742312 -0.0011141397
人 -0.0023973866 -0.0045235306 0.0027474554 0.00082217663 0.0012749004 0.004648097 0.00023275058 0.0008353701 -0.0045915954 0.0011815586 0.0020002217 -0.0005571842 0.0045724455 -0.00188437 0.00073827384 -0.004608262 -0.004889127 -0.003055818 0.0025101525 0.004499671 0.0032072344 0.0031850815 -0.0032824525 0.0024982523 -0.0028153718 -0.0010926108 0.004552199 -0.004589198 0.0009904634 0.0013354872 0.0021771844 0.004703359 -0.0034444747 -0.0019467042 0.0043256413 -0.0012961746 -0.0049634287 -0.0028695331 -0.0014208553 0.001526529 0.0048846677 0.0037796898 -9.353059e-05 0.0047134403 0.0013218616 0.00077865063 0.0014647247 0.0037282177 -0.0029669665 0.0028950465 0.0008178715 -0.004885819 -0.0019186233 -0.0034977274 0.0027998174 -0.0011934525 0.0022602498 0.002628782 0.004807419 0.0011282444 0.00044776648 0.0025704636 0.0032695301 0.0029284444 0.00032896354 -0.003433396 0.0025985595 0.0046470286 0.0016225898 0.0034651665 0.0019996953 0.0049186246 0.0026185317 0.0049085645 -0.0033471917 3.8557195e-05 -7.055201e-05 0.0025216101 0.00019976127 0.00070112554 -0.0035459513 0.0014578039 0.00253131 0.004651833 0.003293982 -0.0039320723 0.0015040437 0.00049436145 -0.00061914086 2.8889199e-05 0.0015125117 0.0037995924 0.0015738325 0.0049354155 0.004506187 -0.0003020154 -0.00061768625 -0.004319356 -0.00027046737 -0.0042863786
权 0.0010934268 -0.004768517 -0.0034601507 -0.0030286312 -0.001385273 0.001595278 0.0026878833 0.00035919822 0.003971764 0.0032439511 0.002895741 0.00036386127 -0.0022136874 0.00051395874 0.0019903947 0.0015221874 -0.0021689874 -0.0018234982 -0.0010938452 -0.00046622698 -0.004004681 0.0048180204 0.0025459973 -0.0018404479 0.0034851078 -0.0041368837 -0.00082674203 -0.0032885384 0.0009993785 -0.000288071 0.0040169056 -0.00019789177 0.003949735 0.0020181374 0.0047944947 -0.004209376 0.0010984915 0.0006705538 -0.0007841242 0.00445159 0.0021668267 0.00078274333 -6.209547e-06 -0.003780968 0.00030132825 -0.0025982046 0.0012730323 -0.00395303 -0.0016037625 0.0046958183 -0.0023989344 0.0030449373 -0.0030643258 -0.0049491236 -0.00093827676 -0.0009597131 -0.0023772665 -0.0001105081 0.0035064532 -0.0012284885 -0.0008395112 0.0010456061 -0.0037292978 -0.0041412804 -0.0022708671 0.002580678 -0.0023052047 -0.0009707711 -0.0041590505 -0.0016094354 -0.00041160738 -0.0010530754 0.0009921965 0.0039760037 0.0039748126 0.004650763 0.0013793968 0.00037607053 0.002271687 -0.0041341046 -3.8362345e-05 0.0044274344 0.00066388346 -0.0029543668 0.0031094668 0.0044740047 0.0039813253 0.004245538 -0.0001533437 -0.0018159025 0.003046725 0.0029310598 -0.002761927 -0.0032351601 0.0040307464 -0.0039094496 0.0044485754 -0.0010088654 0.0024903407 -0.001916488
称 -0.0040509324 0.002957486 -0.002225194 -0.0046340697 0.004644655 -0.002965451 0.0047634044 0.003251871 0.0017878648 -0.00013518678 0.001970499 -5.9795464e-05 0.004246121 0.0019252474 0.001083391 -0.0037112315 -0.0023871232 0.0007365084 -0.0014574261 0.00273609 -0.0001564662 0.0009866045 0.0011300687 0.0009753978 -0.0013919154 0.0012247483 0.0012802335 -0.0039823856 0.00012292778 0.0024911286 -0.0046617836 0.0022104464 -7.347197e-07 -0.000574633 -0.002921949 -0.0034952175 0.0035485374 -0.003408889 0.0026471878 -0.0048078657 0.0028679734 0.0021333396 -0.0015413661 -0.0044837967 0.00403464 0.003952744 -0.0009891308 0.0026846502 -0.0007939568 0.0037443696 0.0025775635 -0.0013426761 0.0047218027 -0.0029519543 0.00036036866 0.0043611857 0.0026087414 -0.0027315037 -0.003416788 -0.0011887078 -0.0035642493 -0.0037919763 -0.0036024444 0.0037288214 0.0011198379 0.0014577673 -0.004588051 0.00058184465 -0.004375754 0.00039640482 -0.0029450038 0.0018709096 0.0032902297 -0.0037317737 -0.0016432195 -0.0040637664 -0.0042310487 0.0036711968 0.00061379257 -0.004940813 -0.0014877234 0.0031842059 -0.0018698708 0.00034015387 0.0031348947 -0.0012060666 -0.0030712918 0.0022509429 0.0025071895 0.00035582774 0.0026447335 -0.0023543064 -0.003110882 0.0019151404 -0.0005325004 -0.0023689454 0.0040256544 0.00498695 0.0033837694 0.00011396016
下 -0.004556798 -0.0036538793 -0.0036544036 -0.0022185962 0.00343532 -0.0023215772 0.003992952 -0.0029963905 -0.00080561463 0.004942879 -0.0028898711 -0.003989405 -0.0007600032 0.0036234555 -0.00024524555 0.0010456722 0.004518197 -0.00068661384 0.00018588146 0.0009977903 0.0020533225 0.0031471225 -0.0041802614 0.0015362108 -0.002396449 -0.0029997975 0.0021596497 -0.0005021059 0.004360012 0.0009558508 -0.0022675493 -0.0043328768 0.0022060324 -0.0032423546 0.0008702439 0.0001758635 0.004387178 0.0034098923 0.0042227507 -0.002051006 -0.0030523732 0.00016188483 0.0010067993 -0.004200807 -0.0028232413 0.0010500426 -0.0038263937 -0.00073060166 0.0016787492 0.00023989886 -0.0041319476 0.004991689 -0.0008183476 0.0007061568 0.0032250772 -0.0015701752 0.004615811 0.0039389017 -0.004544613 -0.00036170505 -0.0031726588 0.003884967 -0.0030423207 0.004356147 0.004108458 -0.0003026631 -8.592483e-05 0.0026905786 0.0026230614 -0.003407516 -0.003760953 0.0015442359 -0.003782857 0.00012435051 0.0038205183 -0.00067563105 0.002631772 -0.0002570004 0.001146205 -0.0017380165 0.0019794358 0.0035394996 -0.0014029603 -0.0017311838 -0.0037470153 0.0043252385 0.0028016705 0.0024840871 0.0031027216 0.0011522477 -0.004195718 0.0036336575 0.0021628272 0.0031992455 0.0012157114 0.0032205621 -0.0020431487 0.0032837375 0.0033598696 -0.0009260718
% 0.0041557485 0.0019135795 0.002308937 0.0041250875 0.00078199344 -0.0022776488 0.0027598033 0.0021412852 0.0025562705 -0.002649571 -0.0037039376 -0.0006298465 0.0020775155 0.0042926464 0.0023361759 0.0022742655 0.0047647236 0.00029220755 -0.0006483481 -0.0011637496 0.0021216383 0.00068798667 0.0013619225 0.00027200824 0.0025163295 -4.1152096e-05 0.0009026799 0.0016549382 -0.00028130502 -0.004529943 -0.0030399591 0.002331112 -0.001577834 -0.003445896 -0.0028672903 0.0028723434 -0.0010221852 0.0012165789 -0.0026810027 0.000760902 -0.004972559 0.002831217 0.004402389 0.0021645867 0.0027566575 -0.004844189 -0.0030425014 0.00072767085 -0.0035310828 -0.0034140798 0.0030620676 0.0044334033 -0.0033770236 0.001210221 0.0038720989 0.0018989156 0.004070335 0.00467367 -0.000988211 -0.001383511 0.004062571 -0.0025631695 -0.0028571396 0.00056264864 -0.0012588539 -0.0003568906 0.0011848828 -0.0025733875 -0.0017912677 0.0013106174 -0.0004263584 -0.0022411419 0.0010436786 0.0047005387 -0.0045781285 -0.00417832 -0.003219045 0.0042285593 -0.0022203568 -0.001166718 0.004274053 0.0016758471 -0.00277696 -0.003132718 -0.0014136944 0.0035187835 0.0044841915 0.0036243892 0.004227407 -0.0038829744 0.0032149528 -0.0007350421 0.0019459337 0.0018441159 -0.003568792 -0.0009478598 0.0045788744 0.0048059244 0.0018496468 0.0023736544
3 -0.0031054718 0.0029101376 -0.0005880943 0.0028362118 -0.0014652221 -0.0014813688 -0.0036031355 0.0047410787 -0.0048117265 0.0017645162 -0.0041471515 0.0031454908 0.0030346313 0.0007507136 7.161063e-05 0.0029988578 0.0033568738 -0.0029311746 0.0030032664 -0.001751203 -0.00298493 -0.0014573311 0.0004739881 -0.0028978596 -0.00081947824 -0.004168376 0.004982281 0.0047101653 -0.0033718718 0.0041999267 -2.4162537e-05 -0.001066397 -0.003203514 -0.00026783888 -0.0020991007 0.0041961125 0.00061963504 0.0039951215 -0.002774523 0.0025856537 -0.0023836666 -0.0005064186 -0.0047506257 -0.0011867742 0.002119605 -3.9921357e-05 -0.0021754724 0.0024351506 0.003305156 0.0042224037 0.00028972336 -0.0017884083 -0.0042205416 0.0028309447 -0.002229477 -0.002745181 0.003142616 -0.004655671 -0.0044852695 -0.0017016643 -0.0012975977 -0.0014406528 0.004248388 0.0009004382 0.0044094464 -0.0042470493 -0.0018191831 0.0030461093 0.0004954166 -0.0005700339 0.0012269529 0.0027912369 -0.0037621125 0.0039052472 0.002568664 -0.0011948781 -0.0026532104 -0.0040365043 0.00060058193 0.0029542637 0.0037411142 0.004835478 -0.0034656639 -0.0030122625 0.0020440759 -0.002343612 -0.0021257403 0.0026468297 0.0008998132 0.0013469557 -0.0031704705 -0.004914061 -0.0048109265 -0.0036884893 0.0044438415 0.003468667 -0.0037504628 0.004545645 0.0049200226 0.0041831783
8 -0.004651136 -0.0012361242 0.0044372836 0.002389576 -0.004396947 0.0022488185 0.00063701096 0.0032208208 0.00011563536 2.5010253e-05 -0.002687102 -0.004180387 -0.0049107727 0.0041078744 -0.00114684 0.0025131495 -0.0033708543 -0.0040259333 0.0010163167 5.9967075e-05 0.002764312 0.0012725672 0.003611214 -7.582639e-05 0.00027024985 0.004810475 -0.0005296881 -0.001076011 0.001073402 -0.0043399585 -0.0027586932 0.0023807667 -0.0030782975 -0.0010729772 0.0048752683 0.0049759047 0.0013647127 -0.0005943096 -0.0043970053 0.0019200657 0.0017497614 0.0036200706 -0.00032698904 -0.0024024402 -0.002048379 0.0023876103 0.004336768 -0.0046247 0.0037102627 -0.004284834 0.0037781647 -0.002113349 -0.0033917578 -0.0019695133 0.004801142 0.0007785498 -0.0016493001 -0.0044038678 -0.0017704951 -0.0011289808 0.0015618812 -0.004641301 0.0018864094 0.002282171 0.0026927385 0.00049643934 -0.0034823066 -0.0021861172 -0.0042149355 0.0016379877 -0.0006246455 -0.004030792 0.002052163 -0.0027806812 -0.0049168766 -0.0032327783 -0.0045367707 -0.0037222928 0.004019777 0.0009045078 0.00010095098 0.002007499 -0.0048631257 -0.004860003 0.0033080978 -0.002708277 -0.004610827 0.0024072563 -0.0025590523 -0.003495059 0.0024383217 -0.0049838163 0.0033296212 0.00078853016 -0.0024446517 0.0041753612 -0.0013418284 0.0030100185 0.0022353972 0.004433937
简 -0.0012993144 -0.004572667 0.0023191958 0.0022746485 0.0014656115 0.003547807 0.0011009912 0.0039210906 -0.0033219506 0.0015556149 -0.004862582 0.00029080483 0.0015582305 0.004810125 -0.0036946177 0.004237241 4.565185e-05 -0.004090739 0.0015002191 0.004031491 0.003842683 0.0048275217 -0.0010702888 0.0010265087 -0.0021234946 -0.0031230964 0.0007699279 0.0014184589 -0.0017191872 -0.00324383 0.00297658 -0.00045554075 0.0031990912 0.0040240525 0.00090161146 -0.0011184037 0.0047047143 0.0017015164 0.0040070587 0.0022575834 -0.0017747475 -0.0026066704 -0.0019205034 0.0030307162 7.487537e-05 -0.0022233832 0.000636985 0.0017589725 -0.00016423839 0.0047528306 -0.001508793 -0.0048007346 -0.00158422 0.00023498789 0.0015668095 -0.0007593521 0.002744376 -0.0037551736 0.0038732185 -0.0005392402 -0.0001718659 -0.001632643 -0.0010136795 0.002471277 -0.00046353615 0.0023470195 -0.0010128922 0.0007315094 0.004199617 0.0013966736 -0.0015940538 -0.0040991837 -0.0035810235 -0.0023988124 -0.003983392 -0.0030989752 0.0033558132 0.004646031 0.0048098397 -0.000590086 0.0024420633 0.0006297936 -0.0032000456 0.0034689086 -0.0007675662 0.0010421644 -0.0006100466 0.002638404 -0.003995873 -0.0010251934 0.004471973 -0.0023174742 -0.0018762688 -0.0004298131 -0.0024514096 0.0012586378 0.002759756 0.002542314 -0.0040427847 0.004169329
万 0.0010274139 0.0021077276 0.004786211 0.001223551 -0.0004374339 -0.0011979139 -0.0023197723 0.0023639626 -0.0037770926 -0.0015510982 -0.0043148687 0.0047351564 0.0018210693 0.0048320354 0.0047299727 -0.004797223 0.004599411 -0.0007291087 0.0034668895 0.0039731464 -0.0040630843 0.0028839037 0.0038049663 0.0036642265 0.0030941204 0.0015118391 0.00019964324 2.705792e-05 -0.001155208 0.0013706227 -0.0030054532 -0.0027984113 -0.001335254 0.002780146 -0.0011413218 -0.0046592434 0.0048956806 -0.002136894 0.003292875 -0.0001973459 0.0010587397 -0.0016256111 0.0036180133 -0.0036797328 -0.00070313225 -0.00450902 -0.0025026265 0.0011771529 0.00033623463 -0.0029392072 -0.0021217237 -0.0012087733 0.0038121243 0.004214738 0.0038642902 -0.00062725606 0.0041474025 0.0022485463 -0.0027343205 -0.0045393226 0.00090924854 -0.0027981712 0.0012986809 0.003168276 0.00496588 -0.004073545 -0.0023288669 -0.0035228336 -0.0028643555 -0.0025813084 -0.0044394233 0.0014261183 0.0045507774 0.0035453672 -0.003725324 0.0043009305 -6.114338e-05 -0.0013697847 -0.0034225073 0.0017796747 0.0023525876 0.0033146385 -6.753538e-05 0.003036571 -0.0027679587 0.004061219 -0.0011162532 7.2428724e-05 0.0019228377 0.0038877157 0.002780472 0.00017738753 0.0028045352 0.0039507863 0.00020403603 0.0040189372 0.00011460868 0.00093533425 0.00414176 0.0042841546
民 0.0037541236 0.0042379405 -0.001930663 -0.0026032499 -0.0048706895 0.0036079104 0.0027436733 -0.003310992 -0.0029968864 -0.003434435 -0.0037157598 -0.002376606 0.004469069 0.002755104 0.004577413 0.004519726 -0.0032969927 0.0044975854 -0.0025604032 0.0029921064 0.0021432694 0.0019228251 0.0034984252 0.0008850879 -0.0014493262 -0.0047152424 -0.0041225464 -0.001918851 -0.0018098671 -0.0047599305 -0.00078914425 -0.0030733573 0.0035063792 0.0011472111 -0.0035094616 0.0034631202 0.0025802192 0.00088983466 -0.0019799073 0.002600875 -0.0046511604 -9.3544506e-05 -0.003462404 -0.0007675759 0.0034084658 -0.004085774 -0.003430772 -0.0045513622 -0.0019077266 -0.002022027 0.0022092985 -0.0023351405 -0.004365935 0.0021624048 0.0036928875 -0.0020855146 -0.0008887165 -0.0047416366 -0.0022751447 0.0024402319 -0.003758836 -0.00069036835 0.0004425584 -0.00038181955 0.0015304877 -0.0048634256 0.0010398529 -0.0020444456 -0.0017538164 0.0012952471 0.0018350717 0.0021523947 0.0021276448 -0.0020569665 -0.0029781004 0.0044932077 0.0010676207 0.0006588327 0.0027731145 0.0039263377 -0.0033454432 -0.0010312552 0.003230629 -0.0048560994 -0.004880051 0.0039094766 0.004867354 0.0034366092 0.0019809934 -0.002558482 -0.00040159785 -0.00036624708 -0.0020675228 0.00065249065 0.0043982416 0.0042577884 -0.004703845 0.00016979607 -0.003903418 -0.004795831
币 -0.0027868142 -0.0022675486 -0.0037812563 -0.0002341421 -0.0005228557 -0.0017978158 0.0001820231 -0.004112379 -0.0037112718 0.0006812995 0.0029902477 0.0019440817 -0.00082986074 -0.0034373857 -0.0028276967 0.0011934385 -0.002596582 0.004426778 0.0005549027 -0.002042128 -0.00019348477 -0.0014241877 -0.001651016 -0.0016651084 0.0036940388 -0.0002797314 -0.001832594 0.0014447747 -0.00052569393 -0.002067595 -0.0046549044 -6.512115e-05 -0.0039291424 0.0014557816 0.0023434944 -0.0038573507 -0.0018915363 -0.0034633281 -0.0032406717 -0.0021450107 -0.0016332071 0.00020150711 -0.004629973 -0.004992426 -0.0016317709 0.0045469278 0.00238151 -0.00017056186 0.0035532012 -0.0032099392 0.0011605885 -0.0001532537 -0.004472685 0.0034649898 0.002801861 0.0019445742 0.004887992 -0.00027109156 -0.00054248486 0.0028783404 0.00068572705 -0.0033832167 0.0031337244 -0.00072924385 -0.0023905141 -0.001809775 0.0004250562 0.0028431918 -0.0039379676 -0.0046720877 0.0013540118 0.0033441975 -0.0016463934 -0.0008618171 0.00019304459 -0.002681417 0.00040498204 -0.004754118 0.002992016 -0.0045730835 -0.0003505979 0.00024494907 -0.0044532833 0.0049038325 0.002166178 0.0017296345 -0.0009734734 -0.0026345127 0.0021332374 0.00065763434 -0.003980566 0.0018270435 0.0026867578 -0.0011725437 -0.0008381452 4.760195e-05 0.0023977973 -0.0018567778 -0.004477838 -0.003644224
投 -0.0013245747 -0.0038312317 0.00025981327 0.0028942814 0.0026161352 -0.0039056803 0.0041352594 -0.0028477646 -0.0032796122 -0.0013975998 -0.0043539344 -0.00474533 -7.634873e-05 0.0020800594 -0.0023636553 -0.0039652972 0.0047295317 -0.00027062325 -0.0045950576 -0.0012700373 0.0026843252 0.004612776 0.0045446195 -0.0008165774 0.00019426695 -0.0019880566 0.0029963292 0.004167197 0.004896682 0.002364112 0.0030819052 0.0006505097 0.0014899558 0.0006873304 0.0009414482 0.004012614 -0.0047387937 0.0025192585 0.00448699 0.0035641007 -0.0019057364 0.003119816 0.002375425 0.002791513 -0.003558692 -0.0017725531 -0.0004547854 0.0025752396 0.0026564754 0.0037356494 -0.0021338002 0.0011821829 -0.0042367615 -0.0021965874 -0.0011501366 -0.0037140923 0.0013866151 -0.0030922445 0.0044080233 0.0005351773 -0.003268891 0.0029749435 0.003258449 -0.004393844 0.0005696531 -0.0029814725 0.00017027959 -0.004991312 0.003503146 0.0049983063 -0.00049640605 -0.0027164868 -0.0046687652 -0.0023197595 -0.002742119 0.002930182 0.00016778675 -0.0038036366 -0.001418224 0.0039879796 -0.0026957735 -0.0032866015 0.004446615 -0.004720347 -0.0032701048 -0.00023000299 -0.0033794316 0.00016071215 0.0031790773 0.0034303544 0.0011092535 -0.0024406929 0.004542707 -0.00037619247 -0.00062208105 -0.0036387756 0.003349283 -0.003191413 -0.000307783 -0.003762583
4 0.0027751457 0.001460724 0.0036797493 0.0046228105 -0.0036922568 9.229447e-05 -0.0014280502 0.0039035124 0.0038010678 0.0046735196 0.0040800376 0.0032435462 -0.00045978412 -0.0019759105 -0.00017359619 0.004221902 -0.004391048 0.0032814809 0.0030148183 -0.00089189754 -0.0014900157 -0.0015853128 0.0020447618 0.0019410308 -0.0007001013 0.0022043213 0.0035190976 0.0024027042 -0.0015713255 0.00042214093 1.8557497e-05 0.0007953125 0.0038818377 -0.002873652 0.0034590445 -0.00239055 -0.00026141744 8.305341e-05 0.0020328895 -0.0029727768 -0.0013416127 0.003174688 -0.004864277 -0.002647008 -0.0049030315 0.001203386 -0.0031125494 -0.002523852 -0.0040394366 0.0040770625 -0.0027135443 0.0033301841 -0.0024572287 0.0042415475 -0.00035816137 0.00062065804 0.0032274171 -0.0017335133 0.001575658 0.0024479956 0.004492974 -0.0020662053 0.001137534 -0.003830158 -0.0045010247 0.0019911656 -0.0013849894 -0.0033494097 -0.0034608245 -0.004187762 -0.0011740571 0.0040555988 -0.0020944322 0.0013740811 0.0011314494 -0.0037308142 -0.0009437738 0.0005762805 -0.00043010982 0.0024809495 0.0011898581 0.0012189809 0.0005417153 0.0038698677 -0.0041623814 -0.003006822 0.0048783612 0.0031279405 -4.710763e-05 -0.0030402825 0.0027179806 0.0020388921 -0.00056493585 0.0028280916 0.0015606474 -0.0011125283 -0.00092764857 -0.00043930745 0.0016187232 -0.0013676437
注 -0.0004917245 0.0008469281 0.0031976746 0.004546388 0.00069309655 0.002724791 -0.00046124565 0.0010930182 0.001475705 -0.0039891074 -0.0037013243 0.004006548 0.004847219 0.0026215015 0.0041317753 0.0028121197 0.00065212627 -0.003315433 -0.0026796656 2.373318e-06 -0.0014692231 0.00439052 7.1926166e-05 -0.0011698212 -0.000540545 0.003675472 -0.0039012125 0.0012469456 0.0023145643 -0.0017751456 0.003046812 -0.0038802666 0.0007250095 -0.0014710902 0.0028389308 -0.0019243191 0.002078231 -0.0013523668 -0.002829407 0.0038149978 -0.0029113237 0.00056412246 -0.002318124 -0.0049858997 -0.004601474 -0.0022366454 -0.004467375 0.0032925433 -0.0017846473 0.0011977148 8.8489396e-05 -0.002548033 -0.004935164 -1.22202955e-05 0.002147255 -0.002077242 0.0016440304 0.0008282013 0.00042366577 0.0016926228 -0.002913935 0.001238206 -0.00024564602 -0.0027375524 -0.0009120253 -0.001192931 0.0028499844 0.004498065 -0.0020400234 0.0013735226 -4.671007e-05 -0.0020523048 0.0034544978 -0.0036170457 0.0017160712 0.003470203 0.0043551545 -0.0026791287 -0.00054649694 0.003966479 -0.0010504259 -0.00093426724 0.0030699912 0.0029521498 0.0025115376 0.0008408858 -0.0020999033 0.002607199 0.0009106365 0.0030326382 -0.0037389703 0.0045247856 -0.00011750968 0.001556931 0.0015294136 -0.0018701818 0.00091867225 -0.0030539816 -0.0036984822 0.0017063725
6 -0.00012166818 -0.000384591 0.00018562608 0.0014292933 -0.0012012545 -0.0022458467 0.0022007483 0.00096951466 -0.0030356047 -0.0015711728 -0.0013964879 -0.004724412 0.0012958715 0.0027879465 -0.0036897955 0.003200081 0.0029695616 0.00069491036 0.002647654 0.0036724345 -0.004155467 -0.0027752407 0.004562532 0.0019315166 0.00461016 -0.003943433 -0.0009360858 -0.0039292322 0.002748813 -0.0031556324 -0.002842282 -0.0028047315 0.0025434487 -0.0025219694 0.0012693399 -0.0049077296 -0.001553861 -0.0023712364 0.004891065 0.0047611184 0.0040965145 -0.0012535357 0.0035461497 0.004771948 -0.003171713 0.000501067 -0.0011951019 0.0041132257 -0.0034492093 0.00078825967 -0.0015580314 0.0025097104 0.00030924668 0.0038272222 0.0019260108 -0.00471806 0.0018441561 -0.0037173566 0.003973209 0.0035787516 -0.0045122905 -0.0025219535 -0.0024874061 0.0011073744 -0.004912931 0.001901481 -0.004255131 -0.0020345333 -0.00077893917 -0.0043185703 -0.0049429997 -0.0009101875 -0.0017727988 -0.002207114 -0.0006522434 0.0035693177 0.0032705276 8.159359e-05 -0.002528191 -0.0015930941 0.00168054 -0.0040971413 -0.0025446056 -0.0009470487 0.0009931533 0.0009018275 0.0045644804 0.0033040503 0.0025882812 -0.002236835 -0.004380054 0.00027048454 -0.00096180436 -0.00045293817 0.0011991499 0.004669292 -0.0037952054 -0.0019873478 -0.002598656 -0.00068897917
册 -0.0039346735 0.0044896198 -0.0031951438 0.0021129607 0.00080738834 -0.00080245314 -0.00032087718 0.00036820982 -0.0009907872 -0.0011130185 -0.004319526 0.0009905123 -0.0011466874 -0.0025086657 -0.0034651882 -0.0027845553 0.0034086802 -0.0010492052 -0.0037168215 0.0004863481 -0.0049210666 0.004989423 0.004270207 -0.0027891141 -0.0017488395 0.0042384122 0.003659932 -0.0003064042 -0.0010617555 0.00019283827 0.0030387542 -0.0040436024 -0.0044222977 0.0019016498 -0.0025085264 -0.004185879 0.0025932647 -0.0032659385 -0.0037249243 0.00035071588 0.0030026115 -0.0008783292 0.004751954 0.0047418284 -0.0013594405 0.0034323435 -0.0019608666 0.004561379 0.004343812 0.0030299036 0.004091434 -0.001748814 0.0017055286 -0.00043336162 -0.0039991755 -0.0046707136 0.0023475692 0.0009705256 0.0035907838 0.0016648256 -0.00186067 0.002292148 0.0016513292 -0.00074338226 -0.003440238 -0.0026319535 0.0030077752 -0.0030904792 0.002917425 0.0035418347 -0.004246277 -0.003296036 -0.0033640678 -0.0015603116 -0.0025681185 -0.0045852 0.0048188563 -0.0012746117 -0.0023727836 -0.0031426176 -0.00156345 0.0010537913 -0.001628771 -0.0034368515 -0.0034506917 0.00016644527 -0.003919328 -0.004060432 -0.0012849013 -0.004515579 -0.0022127046 0.00388089 0.00045818917 0.00019699255 0.0027853618 -0.0010428875 -0.002416148 0.0005446139 0.0041640988 -0.0026213115
份 -0.0008448046 -0.0018306379 -0.0010482669 0.0041633183 0.0037175103 0.0029310936 0.0046177944 0.0034838815 0.0029178523 -0.003302959 0.001358237 0.00057383353 0.0007104907 0.00029674527 -0.004341528 0.00018024027 -0.00016669474 0.002814685 0.0028670349 0.0013914885 0.0038289102 0.0049325284 1.034998e-05 0.0009823472 -0.0005650229 -0.0014304954 -0.00065321795 0.0024591954 -0.0018244873 0.004441237 -0.0024900562 0.0048115267 -0.001576013 0.003953267 -0.00089510664 -0.0016128094 -0.00028015094 -0.0005471871 -0.0014822251 -0.0036759814 6.553206e-05 -0.0030792223 0.0031712113 -0.002241333 0.00042054444 -0.0046463804 0.00012186421 0.0036511181 -0.0039793053 0.00024424522 0.004987736 0.0002998584 -0.0027554901 -0.0019391277 0.0005904435 0.00073483586 -0.0033502285 -0.0002761016 0.0036368077 -0.0041117133 -0.0038261958 -0.004921145 -0.0028532313 0.0031596299 0.0021630197 -0.0024720817 -0.00041252954 -0.004041923 -0.0026021549 0.0020199516 -7.086959e-05 0.0015418922 0.00039786173 0.0035328853 -0.0011419795 -0.004672504 7.359902e-05 -0.0020178847 0.0017555706 -0.001049128 -0.0019028097 -0.0024254567 0.0014422211 -0.0009456032 0.0029278595 -0.002973588 0.0031640204 0.0009801028 0.00077131385 0.0022694482 0.0049579456 0.004494965 -0.0042625587 -0.0033782367 0.0013075351 0.0027614343 0.0036481956 0.0020146703 0.0005712816 0.0046529477
业 0.004282166 0.0038663014 -0.0017568641 -0.004739354 0.004624746 -0.00024329043 0.00043040098 0.0009857186 0.0046083103 0.0046052346 0.004234129 0.00090302166 0.0025755228 -0.0023402986 -0.0023524652 -0.0030937104 -0.00029862943 0.0027859132 0.0019567066 -0.0003165962 0.0026845997 -0.001046496 -0.00061258615 -0.00016752942 0.0035092412 0.0036285713 -0.003999833 0.0016123956 -0.0046845404 -0.0006075077 -0.0042567533 -0.0049990905 -0.00020376779 -0.004544055 -0.0041848742 0.0044937823 0.0030597975 0.0031259805 -0.0047079246 -0.0041070306 0.0010752445 0.0004940163 -0.0047826488 -0.002374447 0.00067886815 -0.0017454298 0.002987517 -0.0018464128 0.00076335884 -0.0036568865 -0.0023464453 0.0002597112 0.0033463445 -0.004264163 0.00400076 0.0009908762 0.004540399 -0.0022055204 0.00014026015 0.0014540455 0.0003744738 -0.002350822 0.000361779 -0.002552449 0.001892937 -0.0005631084 0.004191047 -0.001400389 0.002044792 -0.003704208 -0.004373774 0.00081717904 0.0042859106 0.0043138005 0.0045484183 0.0019632815 0.0017073221 0.004406272 -0.0023376925 -0.0026240996 0.0032596178 -0.0038339703 -0.0014710074 -0.004107096 0.002042976 0.003047824 0.0006403169 0.0030526454 0.0036164792 -0.001921005 -0.004399007 -0.0032958433 0.0023089228 0.0010050817 0.0038142756 -0.00011080067 0.00292805 0.0013093317 0.0033942487 0.0011116125
交 -0.00053839886 -0.0012330441 -0.00223085 0.003468404 0.0040933494 0.0031273714 0.0012309671 -0.004526746 -0.004110358 0.0016364369 -0.002643033 0.0048440206 0.0033239166 0.0008322934 -0.0018793667 -0.003526804 0.0018801108 0.0048219874 0.0022139198 0.0024959012 -0.003314154 0.003776527 0.0038775494 -0.00041388234 -0.0039149267 0.0016599166 0.0008114115 -0.0010088522 0.0047902195 -0.002478895 -0.0013028323 -0.0027313093 -0.0039098887 -0.00047113077 -0.004160089 -0.0031638257 -0.004334945 0.0045415964 -0.004162153 -0.0005755869 -0.0004421135 0.0023641628 -0.0008554726 -0.00032248194 0.004057801 -0.0013175602 -0.0026549231 0.0015547975 0.0005407223 -0.003175708 0.0049446523 -0.0011999985 -0.0033446955 0.0034610718 -0.0048275143 -0.004798828 0.00037703232 -0.0036948868 -0.003907147 -0.0012858345 0.0023282485 0.0014997502 0.00078446465 -0.0010551566 0.004302078 -0.002388967 0.0022948086 0.0010915776 -0.0037523152 -0.003858866 0.00051899033 0.0029008738 -0.0013176982 -0.0016044897 0.00085276563 0.00347407 -0.0038203818 0.0023425706 -0.001084663 -0.0026983614 0.0006129508 0.0027203592 -0.004681246 0.002350163 -0.0020499092 0.0036320158 0.0038631372 -0.0024708968 -0.0011870756 0.0036650903 -0.0017523876 0.0007342053 -0.0005364543 0.0006359272 0.002573837 0.0036875533 0.003705558 0.0025852825 -0.004459434 0.0044699353
出 0.00061130745 0.00094336184 -0.004222234 -0.0020842033 -0.0021149633 -0.003988549 -0.0015671414 -0.00086869113 0.0049818177 -0.0017813512 0.0020478994 0.0009298321 0.00089870667 0.0034643216 -0.0007210854 0.0046316776 0.0011522494 0.0035744007 0.0036006572 0.00499709 0.0037149265 0.00061121775 0.0047129933 0.0022539801 0.0016623798 0.0022000065 0.0019721698 0.0016147858 0.0039162072 0.00073143333 -0.0036296132 0.0031631463 0.003813088 0.0036609385 -0.0036557906 0.002548409 -0.0015759016 -0.0036902297 -0.003437576 -0.004601968 0.0011433129 -0.000960659 0.0040533915 -0.00255169 -0.0029012212 -0.003225376 0.0047318763 -0.0007074849 0.0021180487 0.0019236649 -0.00012166408 0.0029271508 0.002418894 -0.001275372 0.0042640707 -0.00048693083 -0.000722079 0.0004347525 0.0004161461 -0.0012652511 -0.0015235831 -0.00047539768 -0.0001980586 0.0020561272 0.002300867 -0.0032545975 -0.0029965881 0.0044541974 0.00081516604 -0.0048567485 0.0022824693 -0.0046172473 0.001330968 0.0035759853 -0.0020106793 -0.0012054212 0.0041739363 -0.0033153333 0.0030837585 0.00461476 -0.0035019726 0.004147855 -0.0014505868 0.0006224832 -0.00034549375 0.0040831347 0.003895397 0.00037632632 0.004135847 0.003503776 -0.0005670907 0.0007994486 0.00342447 -0.00031386592 -0.0041871024 0.0016650131 -0.0011970918 -0.0026591353 0.00095914275 -0.0019014187
方 -0.00030739186 0.0036852916 0.0032446599 -0.0037337816 -0.0038722067 0.0017835608 0.0049547823 0.0039637564 0.0046141963 0.003340937 0.0006923656 2.6277678e-05 -0.0034644385 0.0043018223 0.0029608663 -0.003040333 0.0028800198 -0.0049254424 -0.0047935327 -0.004590781 0.0017335783 -0.004764233 -0.0034315742 0.00019247572 -0.00104899 0.0007735604 0.0045101107 -0.0026098732 -0.0049382458 0.004623914 0.002565508 0.0049848473 0.0030843841 -0.0011265853 -0.00040372834 0.0024947263 -0.0016121857 0.0007028787 -0.0037223252 0.0010704835 0.0027775096 0.00045439875 0.00010877238 0.0025984226 0.0026745896 -0.0022293786 -0.002549729 -0.0007335554 0.0027596806 -0.0020200347 0.0021189803 0.0042686323 0.0004735397 -0.0016896699 -0.0026328554 -0.0018208191 -0.0006423229 -0.00073041394 -0.0017611632 0.0024074628 -0.0010210526 0.00012156008 -0.0035843088 0.002622935 -5.6261455e-05 0.0048258733 -0.0012963475 0.0010642785 0.0040675662 -0.0010913752 0.0012298765 0.00093184016 -0.0031696807 -0.0026151282 -0.0028020504 -0.00023141754 -0.0035271402 -8.384035e-05 -0.0046436135 0.0019371362 0.0033042943 0.0040087253 0.00036144973 0.0018209199 -0.0048052687 -0.0031936592 0.0045719706 -6.0996945e-06 -0.0016190249 0.0029342114 -0.003936094 0.0021355054 -0.00012006949 0.004380085 0.0029694824 -0.0043614795 0.0018863317 0.0040526586 -0.002222079 -0.0043782042
合 0.0049729357 -0.00069052685 -0.0003657098 -0.0005533606 -1.9463416e-05 -0.0048115305 -0.0014383049 0.004268372 0.0036096505 0.0017176134 -0.004256715 -0.0008861889 -0.0027371184 0.002074766 -0.0033564405 -0.0028002963 0.002684989 -0.000409531 0.004324184 0.0017501615 -0.0002927351 -0.0016723886 -0.0033782609 0.0011083866 0.0019609232 0.0020459802 0.0007965032 -0.002202187 0.0036562418 0.003640751 -0.0028418093 -0.0048628813 0.0010568767 -0.0040480974 0.004054412 -0.0038198635 -0.001739992 -0.0026861408 -0.0008061163 0.0030886254 0.0019953866 -0.0007429567 0.0032638463 0.0033100285 -0.0024909521 -0.0046539633 0.0026998308 -0.0048377574 0.000120212266 -0.0026403016 0.0031015833 -0.0021489307 -0.0016199597 0.0014192114 -0.0022114697 -0.0037548784 0.00019844458 -0.0004487925 -0.0038522354 -0.0007569453 0.0011660601 -0.0026013998 -0.003879632 0.0013447347 0.0024727124 0.0041069286 0.0036510844 0.00070743833 -0.0010824831 -0.00497203 0.0037547366 0.0021540795 -0.004511648 -0.00015661617 -0.004607109 0.0045909467 0.0048962426 0.0010658714 -0.0037860519 0.0034561928 0.003529062 0.002386149 0.0015981243 0.001880197 0.0034415594 -0.0009869429 -0.0013111234 -0.0027662246 -0.0038631056 -0.0028731888 -0.0025625988 -0.0013813316 -0.0033791678 -0.000945399 0.0016119058 0.002656939 0.0032386899 0.001012773 -0.003089813 0.0017459178
易 0.004440326 -0.00091404695 0.0026187731 -0.0006483209 0.0015204988 0.0041002794 0.0020433476 -0.003732165 -0.000615478 -0.00039774564 -0.004476552 0.0044250474 -0.001067389 0.0031209532 -0.003519295 0.00019050151 0.003832645 -0.0013422822 -0.00042902975 -0.0033798497 -0.0044216625 0.0010954648 0.003206976 0.004865298 0.0038905756 -0.0019370583 0.00058378227 -3.0234087e-05 -0.0038542906 0.0033562693 -0.0014544623 -0.0027319433 0.0009713238 0.004832684 -0.00041147723 0.004628183 -0.0048987693 0.0025645124 0.00036866663 -0.002343151 0.0042079245 -0.0012205755 -0.0042405026 -0.0023395664 0.001752695 0.00049727975 0.0038861632 -0.002495301 0.0025111018 0.0035686353 0.004190724 -0.004126265 -0.0037657982 -0.0011849719 0.0022764264 0.004177828 -0.0016891605 0.0025139293 0.0035009473 0.0025576116 0.0037981838 0.0012338205 -0.0018440784 0.0013272796 -0.0042041326 -0.0023525266 0.0013917375 0.003928265 0.002767221 -0.0031010006 -0.0039926753 -0.0016979281 -0.0021992892 0.004933191 -0.0009877571 -0.0035617598 0.0041172635 0.0013856257 0.0037848877 -0.0041581094 -0.0016418421 -0.0011210782 -0.0029847831 0.0019947696 0.0012868078 -0.0034292245 -0.004706549 -0.0042948164 -0.0005960612 -0.0026074457 -0.0032612348 -0.00064676435 0.001631461 0.0038561607 -0.0045762635 -0.0046816454 0.0012549632 0.002687366 -0.0015563082 0.0017582596
产 0.0011390648 0.0019262068 -0.0015620496 0.0046231067 -0.003410891 -0.0006983577 0.00038957782 0.000812955 -0.0020523795 0.0029529762 0.0020630055 0.0015449864 -0.0036624398 0.0025309483 0.0012463133 -0.00084828626 -0.0016098099 -0.0006176228 0.0038687366 -0.0012064091 -0.00079733337 -0.0029169025 0.000972021 -0.0003314107 0.0013983942 -0.0033422832 -0.0014601513 0.003474823 -0.0030132167 -0.00034856502 -0.0013372627 0.0011858244 -0.0027060306 0.0012478589 8.4089144e-05 -0.0043648477 0.0041172034 0.002732983 -0.0012849382 -0.004122588 -6.147264e-05 -0.004381381 0.0039701955 0.0019365303 -0.00416557 0.004008357 -0.00399469 0.00065795064 -0.0020218506 -0.004440823 0.0032970351 -0.0028675885 0.0005833756 -0.0013537729 -0.00018686675 -0.0009403269 0.003430927 -0.0037454364 -0.00014709773 -0.0009135488 -0.003973768 0.0008918663 -0.0024109152 0.002533598 -0.0016009113 -0.0042797513 0.0030159226 -0.00046609106 -0.0040703625 0.0049169995 -0.0033471598 -0.004518975 -0.0012747234 0.0010606681 -0.0030894745 0.0002403416 0.0014485602 -0.0012160004 -0.004369726 -0.0012055036 -0.0044863108 -0.0015746964 -0.0023409924 0.004273587 -0.0016931986 0.00088468293 0.0009748802 -0.003134274 0.002583975 -0.00463816 0.004623687 0.0041984688 -0.0024258846 0.003306891 -0.002862757 0.0015832768 0.0026193417 -0.0012218105 -0.0024894928 0.00041458238
金 -0.00438842 -0.0024535412 0.0030179636 0.0029711213 0.004235619 -0.002590155 -0.0039035685 0.003931289 0.0030251013 0.0014133409 -0.00012008695 0.0015190028 0.0029498613 -0.002523183 -0.0005792067 -0.0025956833 -0.0018514505 -0.002456173 0.0036048752 0.0024857179 0.0038430681 -0.0011862562 0.0031513248 -3.3465258e-05 -0.0005268154 -0.004787743 -0.003953673 -0.0016667956 0.0042393478 0.004451478 -0.0027652082 -0.0016088382 -0.0024418547 0.003537218 -0.00029181511 0.0009430581 0.0009266883 0.00078397605 -0.00042152297 0.0019298552 -0.0039775716 -0.0025648938 0.003942414 0.0010694838 -0.0014659216 0.0043055085 0.00073368766 -0.0044424105 0.0022266582 -0.0027853157 -0.0012340737 -0.0021111718 -0.0015490921 -0.00026174 -0.0023214726 -0.004417479 -0.00031784063 0.0018824422 0.001395468 -0.00019996932 0.003724588 -0.00020716751 0.002558629 -0.0033908936 0.0032384538 -0.0012025969 -0.0049753776 -0.00062383676 0.004638036 0.002812713 -0.0044866814 0.001900091 0.00048345284 0.0037257103 0.0013183745 0.0026486742 0.00083126134 -0.002362762 0.0025224916 -0.0013827957 0.0042780703 0.00031092542 -0.001955914 0.0011987009 -0.0029587653 0.0025790692 0.0037240097 -0.0022017686 -0.004485919 -0.0028202313 0.0045098974 0.0012782445 -0.0030954585 0.0016160175 0.0042296294 -0.0032444391 -0.0015289754 -0.0029362761 -0.0023157387 -0.0045528933
地 -0.0017648762 -0.0047980137 0.0017821598 -0.0016042372 0.004309616 -0.0034936648 -0.00035619418 -0.00015078159 0.0037097547 0.00039376237 -0.0049537686 -0.002119448 0.0024549807 -0.0039141076 -0.002491165 -0.0027521525 -0.0031886746 0.0033449472 -0.0015796477 0.0035824399 -0.0033460343 -0.0019643668 -0.004934156 0.00022024257 0.002249327 0.00041825662 0.0005648727 -0.00025630585 -0.0006101939 0.004565178 0.003732883 0.0027459357 0.00420606 -0.004116466 0.0030141594 0.0041888924 -0.0046202126 -0.0026702138 0.0010633371 -0.0034115445 0.0013073627 0.0033150977 0.0048887217 -0.0011166715 -0.00092276366 -0.0048339856 0.0031881775 0.0005150422 -0.0031532464 -0.0015859304 -0.0049800975 0.0029870209 0.00205393 -0.0006542422 -0.0013910298 -0.0011403795 -0.0048669768 0.0030007071 0.0040237843 0.00025956728 -0.0044299895 0.00303716 -0.004595226 0.0021083597 -0.0016985514 -0.0032245356 0.0045504128 0.004392263 0.0034164991 -0.004475634 -0.0047159577 0.0018936638 -0.003977472 -0.0025094154 -0.00496273 -0.004852855 -0.0017543465 -0.0018468128 0.004583598 -0.0016979064 0.0020732759 -0.0049891993 -0.0032905121 -0.003418343 -0.0031671752 -0.0038017652 0.00043220364 -0.0037258426 -0.0015303111 -0.0014700505 -0.0021482843 -0.00035088471 0.0035734382 0.004612641 0.0038493224 -0.0016797624 -0.00010535538 0.0012895509 -0.0034160619 0.004113457
次 -0.0007394328 0.0010825451 0.0038757673 0.00036046063 -0.0035329775 -0.00094962487 -0.0022402431 0.0011117904 -0.0043110987 -0.0016477158 -0.0045413543 -0.00018733929 -0.0033498134 0.0033463798 -0.0016935415 0.002027047 -0.0028324856 -0.0012980712 0.004771631 0.0041256547 -0.004811932 0.00035239558 0.000594268 -0.0017577581 -0.0025530884 0.0026215303 -0.004358144 0.0030997568 0.00036132938 0.00357244 0.0021937855 -0.0018137122 -0.00024637426 -0.0007615903 -0.0006761956 -0.00094525225 0.0038154097 0.00422912 -0.0009720762 -0.00079057866 -0.0039869137 0.0041370043 -0.0014231707 -0.0018902384 -0.00014754385 0.0017399283 -0.0024092318 0.003561208 0.0043782764 -0.0049731997 -0.00010818969 0.0013227744 -0.0048293374 -0.0039023692 0.0020890455 -0.003986916 -0.00398324 0.001979242 0.0032908183 -0.0037740301 -0.003505471 0.004163826 -0.0039789598 -0.0007801171 0.0012353024 0.002851806 0.0022723041 -0.0018636644 0.0036671516 0.0022737214 -0.00197168 0.0040711015 0.0019679326 -0.0012609545 -0.0037857834 0.0030392904 0.0016697439 0.002347146 -0.0002449007 -0.0030704406 0.0018481708 -0.0045629097 -0.003469352 0.002697908 -0.0036878341 0.00072987593 -0.0017116586 0.004699815 -0.0026576435 0.0047099777 0.0025359052 -0.0010115972 -4.8403967e-05 -0.001134086 -0.002622058 -0.0033724313 0.0019338263 -0.0027340841 -0.0042870585 0.0001449339
7 0.002667076 0.0049884 0.0027978132 -0.001663329 -0.0014382581 -0.002863019 -0.0020430302 0.00092876924 -0.0009952914 -0.0015107018 -0.0028597794 0.0032256288 -0.0019049571 -0.0017317933 0.0038600876 -0.001609506 0.0045407293 -0.003788609 -0.004059512 -0.0038427243 0.0031055317 -0.00023624151 0.00437121 -0.004053705 -0.0036912751 0.004796692 0.002516044 -0.0017274776 0.004302375 -0.0007902603 -0.0018728292 0.0027923137 -0.0034755147 0.0031244545 -0.004685628 0.004032806 0.003398734 -0.0013562663 0.0044707824 -0.0037688478 -0.0015095731 -0.004678765 0.0031921263 0.0027708982 0.0024235507 -0.003444127 0.0023098008 0.0014821728 -0.0044146567 0.004487403 -0.00019418985 0.000792784 -0.0032467735 0.003985826 0.0017144498 -0.0035624232 0.0019708576 0.0009212222 -0.003790558 0.00028867766 -0.002143668 -0.0019868987 -0.0016053155 -0.0041595 0.0009887217 0.0036296842 0.0028209276 -0.0012146595 0.0024432715 -0.0039726975 0.001413671 0.0024539283 0.0010508287 0.0019362406 -0.004240812 -0.0034378646 0.004928234 -0.0042118137 0.0013355091 0.004437548 -0.0047652456 0.0032482885 -0.0049455566 0.004489666 0.0036598884 0.0033169186 -0.0040549315 -0.0012287588 0.0007690349 0.0015358912 -0.00026475545 -0.0016074495 -0.00052634074 -0.0013221704 0.0035823677 0.0003997809 0.0010407168 0.00015974519 -0.0039383764 -0.0012794336
中 -0.0023996443 -0.002371293 0.00388755 -0.0017580803 -0.0036759775 0.0034126104 0.0020839763 0.0042317235 0.0048124106 -0.0042758915 0.003225794 0.0025757274 -0.0019492308 -0.0019853197 0.0024344618 -2.6680658e-05 0.0038934161 0.0014411841 0.0034788244 4.0832725e-05 0.0036683688 0.002012227 0.0008158475 -0.0003205705 -0.0034480952 2.407674e-05 -0.0046185614 -0.0012140399 -0.0005839356 -0.0025082212 0.00010450839 0.0026526365 -0.002407036 -0.0014435089 -0.004081258 -0.004685315 -0.0047519635 0.00434435 0.00088641094 0.003649565 -0.0030172872 0.0046841097 -0.00032297472 -0.0020619333 -0.0009326478 -0.0024008937 -0.002021639 0.0046965587 -0.0019764483 0.0010464535 0.0014381211 -0.0004909663 -0.00010537774 0.0006180871 -0.0031600029 -0.0040388657 0.0027907935 0.0009841451 -0.0017018442 0.0048821005 -0.0025692042 -0.003403439 -0.002839804 0.003764984 -0.00060575566 -0.00049057225 -0.0015769274 -0.00072378584 -0.002837349 0.004234546 -0.0005291595 -0.0016996304 -0.0041895984 0.0029631853 -0.0016028938 0.0012428897 0.001599998 0.0014118443 0.0007881037 -0.0029711637 0.0031045163 0.0012405401 0.0015087184 -0.004419139 0.00043384195 -0.004870484 -0.0019468562 0.00077999185 -0.003435255 -0.0037827785 0.00196893 0.0023541374 -0.0027399908 0.0032456496 -0.0033321192 -0.0014216679 -0.0036649613 0.0025124026 0.00409081 0.0022048308
科 0.0048657185 0.0009854626 0.0005322464 -0.0025836765 -0.0036711076 0.003658422 -0.003285082 -0.002749016 0.0026405707 -0.000786873 -0.0021980018 0.004902811 -0.001944794 -0.004079628 -0.0008132041 0.002731367 0.00056563 0.002039202 -0.0029756252 -0.00036246845 -0.0014679194 0.0028745346 -0.0029135558 0.0003599739 0.00057134253 -0.004271303 0.0005556003 -0.00095715624 -0.0031361594 0.0049411203 0.0018127975 -0.0039506187 0.0027450318 0.0036634118 -0.00032591232 0.0034871548 0.004843554 0.0002023623 0.003564179 0.000326202 -0.0018133337 0.0010832495 0.0029222635 -0.003601761 -0.0012593179 -0.0031454084 -0.0020449825 -0.002606171 0.0041537452 0.0039257947 0.00080517394 -0.0009873967 0.0028071357 0.0015785551 -0.001310029 -0.00081769656 -0.003169562 0.0028397487 -0.0029841287 0.0015364012 -0.002632247 0.0007403748 -0.0028507223 -0.0043558544 -0.004181588 0.0033500819 0.002572799 -0.0026329607 -0.0018643722 0.0035424791 6.10253e-05 0.0025246022 -0.00472911 0.0037165317 0.0037038366 -0.002466726 0.0032759183 -0.003509681 -0.0041628466 0.002963981 -0.00068794395 0.004978508 -0.00342616 -0.0022702536 0.0006845028 -0.0012139058 -0.0035226746 -0.0016442076 -0.0016794035 -0.0026787368 0.00334327 0.003646512 -0.0011176614 0.0049107205 -0.0018612057 0.0017019634 -0.0037593585 0.001874329 0.0038423392 -0.0002979167
子 0.0015164963 0.0015481343 -0.0022715873 -0.0034908988 0.0040776967 -0.0016542169 -0.0031507534 0.0017341829 -0.0009582802 -0.0042932103 0.00023614954 0.0024965345 0.001090416 -0.0031133192 0.0035229807 0.0043229098 0.0035540012 -0.004330827 -0.00041195596 0.003613874 -0.0047015017 0.0034106052 0.0026175622 0.00078197906 0.0028902849 -0.00047340247 -0.004748303 0.0019698457 -0.0010383112 0.0018433294 0.004009578 0.0005768535 -0.003266956 0.0041383477 -0.0021727043 0.0016496432 -0.0029855194 -0.0016024811 -0.0025904176 0.0036688363 -0.0021698955 0.0018946604 0.0021205472 -0.0038423773 0.0035037189 -0.001943511 0.0048468024 0.003550538 -0.0035262357 -0.0014384065 0.0026217557 -0.0027139825 0.0017151275 0.00039558386 0.0011111097 0.003480181 0.0021229647 0.0017278822 0.0040369965 0.0016500425 -0.002871001 -0.002413181 0.0002714178 0.0034731806 0.001917361 0.004767972 -0.003269629 -0.0031688325 -0.0034103962 -0.00069632684 0.003291376 -0.0023487771 -0.0006318494 -0.00043482543 -0.0009770744 -0.0019227725 -0.0022578563 -0.0048910184 -0.0012895509 -0.0038070101 -0.0028122857 -0.0023310937 -0.002919651 -0.004706107 0.002335187 -0.0011281553 0.0029856754 0.0004877735 -0.0042452263 0.0028217668 0.0035233016 0.0038177848 0.0032364144 0.0015849359 -0.0036825188 -0.0018887217 0.0022524463 -0.0022083186 0.00019029346 0.0020096402
技 -0.0021891233 0.0043743677 0.0009088305 0.0048407535 -0.0019901812 -0.00499613 -0.004485942 0.0043403073 0.001992458 -0.0013335977 0.003308254 -0.0046546366 -0.0024703825 0.004655931 -0.0046498645 0.002338196 0.0014652568 0.0026739335 -0.0003786404 -0.0021281915 -8.464655e-05 -0.0028420002 -0.0004517108 -0.00207583 -0.0033227727 0.002361423 0.0048490255 0.002833428 0.0006658381 0.0024317936 0.004924912 -0.0024080318 -0.004161203 -0.00045306137 -0.0029578265 0.004642022 -0.0008517339 -0.002682607 -0.0025790713 0.0019386496 0.004593715 -0.0048057972 0.0014309107 -0.00462668 -0.0031017931 0.0045665046 0.0016445214 -0.0008140502 -0.0019364363 0.0016491925 0.002678431 -0.0011541191 -0.004575459 0.002303266 -0.0012839589 0.0029625501 -0.004708882 0.0012920047 -0.002740732 0.0046564094 0.00050270103 -0.00038286686 0.0037513403 0.0028036286 -0.0033872956 0.0003634538 0.0047627073 0.002141124 -0.00010785914 0.0020751313 0.002412237 -0.0008778826 0.0031443818 0.004856819 -0.0018901982 0.004279517 -0.0039104503 0.00036913776 0.0008697899 0.0030712092 -0.002317787 -0.0014317913 0.003175666 0.003456607 0.0020143944 -0.0049832733 -0.0020295165 0.00044597485 0.0032514948 -0.0026240621 -0.00044897723 -0.0020551034 -0.002553489 0.0041673626 -0.0029595 -0.000995079 0.0021193495 -0.0028801349 0.0022792555 0.0045124567
市 0.0016974213 0.0036991236 0.0021070577 -0.0036832371 -0.00068988604 -0.0018032975 -0.0010822244 0.0034812922 0.003149025 -0.0044309963 0.0012449129 -0.0031665757 0.002707065 0.0047468506 0.0017655486 0.004892652 -0.0049907174 0.0033588836 -0.0012128656 0.00087176915 -0.004779026 -0.0017984658 -0.003773236 -0.002399778 0.002995131 0.002906482 -0.004480567 -0.00035821216 -0.0007559796 0.0011677189 0.0048815073 -0.0035521772 -0.004602418 -0.004162011 0.0011907194 0.0009773152 0.0013998213 0.0037271623 0.0046519693 -0.0013985229 -0.004247818 0.0038126411 -0.004341796 -0.0031507243 -0.003098487 0.00026340692 -0.0047077043 -0.0007988988 -0.0045654112 0.003603778 0.0038584657 -0.0043630586 -0.0044256626 -0.003877838 -0.0008276421 0.0014879515 -0.004339796 -0.001845252 0.0028539514 0.0045915586 0.0035060872 0.0037946226 -0.0032019077 -0.0019555055 -0.0008032261 0.0045432043 -0.0036776075 -0.0021997497 0.0008486524 -0.0021643084 0.0020551218 -0.0012811061 0.0045158174 0.0025449095 -0.0022095507 0.0022639392 0.0015274521 0.0020523742 -0.0022725912 -0.003579056 -0.0010444357 0.002550207 -0.0034256922 0.0029989397 0.0047086864 0.003424915 0.0027658173 -0.003668801 0.0015477429 0.0004320946 -0.0044076233 -0.0044452907 0.002537547 0.0013014423 -0.003920947 -0.0018208836 0.0045153196 -0.00045107672 0.0025843726 0.0021355094
增 -0.004563668 0.004770586 -0.002836708 0.0010642757 -0.0026490674 -0.004141502 -0.0016259921 0.00098358 -0.0043721534 0.0007857442 0.0025295445 -0.00079306937 0.004529113 -0.004723342 0.003940467 -0.0007291053 -0.0020169322 -0.0024434975 -0.0038551542 -0.00058593345 -0.003469316 0.0027361684 0.004167318 0.0010528946 0.0028997378 0.0033590859 0.0048099183 -0.00017945937 -0.0010599111 0.004944525 -0.002898704 0.002591091 0.0022235408 -0.0020360616 0.00062772975 0.001460193 -0.003219371 0.0013748364 -0.00077031256 -0.0032938907 -0.0024471935 -0.0044895457 0.0015844011 0.0025336111 -0.0016625819 0.00389103 -0.0025352007 -0.00035927535 0.0003225232 0.0006461509 0.0025226905 -0.0029889059 -0.002151162 0.004662522 0.001130304 0.00010818836 0.003962827 -0.004439518 -0.0015476645 -0.003079969 0.0024030234 0.0028127707 0.00430834 -0.0009072031 0.0020283244 -0.00088531326 -0.00024814115 0.0044491054 0.00241121 0.004969314 -0.0043510217 -0.003390863 -0.0019729293 -0.0012034591 -0.004742399 -0.0047457977 -0.002254768 0.0036147945 -0.0044375053 4.942113e-05 0.0028368193 0.002444769 -0.001746539 -0.0007224252 0.0026386583 -0.0031732118 -0.004114871 -0.00096453086 -0.003748454 -0.0022104029 -0.0006169362 0.0009290582 -0.004958635 -0.00044620526 0.0034097468 0.004584224 0.00076810183 0.0035559717 -0.0042764368 0.00064908655
议 0.0017994976 0.0005429585 0.0026531466 -0.0018882334 -0.004745655 -0.0017950266 0.0030194204 0.003541628 0.0031162368 -0.0037737044 0.0048607844 -0.0023983647 -0.00042271143 -0.0032213053 -0.00325205 -0.002076485 0.004972127 0.0029586363 0.003265665 0.003320172 0.004830839 -0.0044456897 -0.003116291 -0.0029752548 0.00044634435 0.00014591239 -0.0037124944 0.0028138228 0.004697791 0.0007400362 0.00050618785 -0.00017399897 0.0019682662 0.00063718593 0.0027489732 -0.0029957271 -0.0004555489 -0.001919891 -0.0047729043 0.0011855059 -0.0012569856 -0.000162442 -0.004755699 -0.004910932 -0.004001477 8.1177226e-05 -0.004528265 0.002579984 -0.0011460647 0.00415324 0.0019414113 0.0012564901 0.00017706529 0.0005596131 0.0012797931 0.0028985557 -0.0011232595 -0.0005659612 -0.0025236136 0.004726085 -0.0011100923 0.0044602957 5.1289437e-05 -0.0025966673 0.0014400051 0.0010904818 0.0046223192 0.0029119502 0.0034758518 0.0010006998 0.0034026268 -0.0007012365 -0.004436395 0.00038499266 0.0037685325 0.0007361425 -0.0030248356 -0.0014006455 0.003763117 -0.0005557077 0.004858789 -0.003931028 -0.0024025217 0.004616911 0.0018062576 0.0046604844 0.004071692 0.0034068984 0.003393944 0.004779526 0.0034190968 0.0016570984 0.00082001643 0.004471098 -0.0023755708 -8.3253966e-05 0.003519486 0.00026302814 -0.0031978334 -0.0022602277
拟 0.0031496058 -0.004885386 0.00068458926 -0.0040505724 0.00034731536 -0.00069019746 0.0035427727 -0.0038492633 0.00067920954 -0.0009270835 -0.0021679818 0.0043500573 0.0010953477 0.0021477807 0.0037417838 -0.0035237004 0.0045148493 0.0005474977 -0.0049349065 -0.0018553227 -0.0032595997 -0.0042207683 0.0020995867 0.0017392068 -0.002607384 -0.0028801663 0.0011128973 -0.0020993727 0.0012504947 -0.00314674 -0.0015391161 -0.0021019361 0.0044473927 0.004633256 -0.002618046 -0.00022961356 -0.0017036594 0.004240784 0.0031978087 -0.00073521334 -0.0012461509 0.0017928741 0.0013692087 -0.0013658755 0.004937586 0.002506739 0.004182544 0.0029498562 0.004290115 0.00021525189 -0.000120011406 0.0005183451 -0.0029358729 0.001248853 -0.0019989302 0.0022528125 -0.0009775204 -0.0015277263 0.0023911207 -0.0037253832 -0.0035200198 -0.0033382408 -0.004944874 0.001879365 -0.0029679914 -0.0033892426 9.521157e-05 -0.004689316 0.00017401643 0.0022576584 0.0037721272 0.00030845212 -4.592198e-06 -0.0014262336 -0.004283832 0.0032486522 0.0008091857 0.0039181984 -0.0005428312 -0.0038347046 0.00058504986 -0.0033068692 0.002818822 -0.0023817886 0.0008461086 -0.0015264995 0.0026820833 -0.0017053065 0.0006842582 0.004713065 -0.0039492 0.004269877 0.0009978822 0.0030648096 0.000101403726 -0.00019718207 -0.0029803487 -0.0040257615 -0.0013406747 -0.0045501254
9 0.0031151993 0.0012660207 -0.0039082826 0.004846272 0.0019042555 0.0031254082 -0.0032385632 -0.0017163219 0.00338589 -0.0006077177 0.0018359432 0.0038574822 0.004623313 -0.003798362 7.657478e-05 0.001254095 -0.0001413915 0.0040475153 0.0049226424 -0.0034089396 0.0031939514 0.00017645057 -0.0036738627 1.957429e-05 -0.0039984756 0.0032353846 0.0015070369 0.0045714155 -0.0046836473 -0.0034334296 -0.0047832164 0.0042342804 -0.00036784663 0.0012032297 -0.0042049303 -0.00030828296 0.0037827622 -0.0021033264 0.0022937306 0.0033046878 0.00047285916 0.0012308422 0.0029660433 0.0019138963 0.003568875 0.0034736353 0.0015045274 -0.0040918123 -0.0041132052 0.004979883 -0.001422574 0.0029413637 0.004405906 -0.0031740747 0.00010281396 0.0029865482 -0.0013338871 0.0016901676 0.0025508646 0.004911113 -0.0015534096 0.0032122454 -0.003370406 0.002641826 0.001493603 -0.00079139596 0.0032734484 0.0018324024 -0.004591761 0.0027723506 -0.0019508593 -8.236838e-05 0.004483805 -0.0031177504 0.004562748 0.0017294494 -0.00046706203 0.0023755478 0.00030283004 -0.001337569 0.00012612506 -0.0024255204 0.0021927115 0.004975174 -0.0031738013 0.0039563566 -0.00014104141 0.00020806814 -0.0020570613 0.002658411 -0.0014443245 0.0023915241 -0.00059993047 -0.0022183845 -0.0007757591 -0.004848436 0.0027010667 -0.004523865 0.0002662639 0.0001813769
上 0.0018824287 0.00308998 0.0003962786 0.0037057914 0.002375541 -0.0002901135 -0.0043627582 0.003818555 -0.004362247 -4.9314862e-05 0.0014294371 -0.004859619 -0.0037533366 0.0010532077 -0.0021208602 -0.00056803314 -0.0015804947 0.003724283 0.0029489698 -0.003263459 -0.0025518015 -0.0029102631 0.004663382 0.0019133264 0.003646919 0.00038651057 0.0008814952 0.0006430716 -0.0040765465 -0.0034449564 -0.0038287141 -0.00202615 -0.0035081264 -0.0019196435 -0.004420494 0.0041199042 -0.003251203 -0.00080505526 -0.00010349687 0.0031932492 -0.004204061 0.0030439447 0.002134383 0.0034360844 0.0031288913 0.0016246008 -0.0006459056 -0.0023304117 -0.0014473947 0.00032994762 0.00036971187 0.0037996464 0.002784547 -0.0035338867 -0.0020562725 0.001030493 -0.0045384564 0.003240201 0.002578358 -0.001161712 0.0016769159 0.002235237 0.004528692 0.00023425063 -0.0041491627 0.0047641825 -0.0037171454 -0.0018519526 0.004667933 0.0037637095 0.0010551707 -0.002606407 5.3737098e-05 -0.003859076 -0.0008611364 -0.0028871023 -0.00076301163 0.0049979454 -0.0025895303 0.0017977736 0.004698005 -0.00077132665 0.0031145876 -0.0004037251 0.0007977044 0.0023962965 0.0029621562 0.0003487652 0.0046885354 0.00023310812 -0.0043934826 -0.00021168262 -0.0016433328 0.0039206753 -0.002025952 -0.0007639678 0.0046813134 0.00448056 0.0023441955 0.002106417
持 -0.0016367054 -0.0030964254 -0.00079146633 -0.0021430566 -0.003302969 -0.001289077 -0.004004147 -0.0022740953 -0.0005333492 0.0011181863 0.0027822207 0.0011470657 -0.0038373214 0.0017724358 -0.0042496473 -0.004823696 0.0049561122 -0.0030615302 -0.003578422 -0.0024671596 0.0016847489 0.00082932814 0.002668588 0.0022894219 0.0008932937 0.004547327 -0.0042393645 0.0045885025 0.0028826934 -0.0036581252 0.004432262 0.0009361331 -0.00094617845 -0.00288652 0.00038668804 0.0026942017 0.0014822363 0.00029690273 0.00018588129 -0.00229582 0.0031261314 -0.0031319736 -0.0038598254 -0.004832231 0.0018527318 0.0019930177 0.0018798327 -0.004306118 -0.0001017011 -0.0031473648 -0.0039702062 -0.004649307 0.0013950098 0.004294704 0.004552839 0.0035737434 0.0013136751 0.001395745 0.0033983544 -0.0007029446 -0.0044859853 0.0011372673 0.0034531702 -0.002578836 -0.003235578 0.001291312 0.0039520725 -0.0018833816 0.0023066597 0.0019717428 -0.0023690416 0.0036595832 0.0015157938 -0.0018585343 0.002723273 0.004311472 0.0029668682 0.0011614513 -0.001850807 -0.0047903685 -0.0045582843 0.0030875572 -0.001938917 -0.0038090793 -0.0018281474 0.003287881 -0.0014499223 3.2614906e-05 -3.0982923e-05 0.00437025 0.0018654623 -0.0026645497 0.0034407552 0.0014472433 0.0024902865 0.002927322 0.0046781977 0.0038992665 0.0016799085 -0.0033244477
让 -0.0033510588 0.0005192389 0.002928865 -0.0035056171 -0.0048504644 -0.0022879401 -0.001502327 -0.002216251 -0.00015965178 0.0016173265 -0.0035816685 -0.0009775012 0.003526718 -0.0039622937 -0.001986712 -0.003308734 -0.00081711326 0.0011188147 0.0041065994 0.0018583956 -0.00012545097 0.002052819 0.0006997306 -0.0028745157 -0.0016586593 -0.0027720702 0.001559027 0.0042959377 0.0045864186 0.004048267 -0.0027919752 -0.0025864812 0.0040113092 0.0040655266 -0.00046559802 0.004286355 0.0034232044 -0.0031034134 0.0046037817 0.00070599647 0.004693045 0.0002753942 -0.0019156015 0.004962552 0.0017069082 0.0027406202 0.00048727597 -0.0038560058 0.000355454 -0.0023136097 -0.0005198688 0.004066701 0.001582973 -0.001339108 -0.0017475885 0.004240328 0.0030154786 -0.00073299935 0.004127998 0.0007693284 -0.00083496573 -0.004479053 -0.0033567671 -0.0005149694 0.0037584577 -0.0038822254 0.0019314985 -0.0016409474 0.0046414984 0.0032516962 0.0044583213 -0.0043874304 0.0003117014 0.0025787968 -0.0037055311 -0.002211662 0.00014225507 0.00014989785 0.0033231473 -0.00264188 -0.0040841657 -0.003295743 0.0018693871 0.004601955 0.0010950177 -0.0029602419 -0.00047973642 -0.00013225808 -0.00075173756 0.00036648632 0.0034022063 -0.003951915 -0.0045522666 0.00046033584 -0.0028031934 0.002411246 -0.0024453488 -0.00074655254 -0.0035273174 -0.0020080423
通 0.0006904984 -0.0017178882 -0.00041427615 0.0002463461 0.004105912 0.0010829953 -0.003010265 0.0036551845 -0.0004870299 -7.745176e-05 0.0034388292 -0.0047472958 -0.004887426 0.0033428867 -0.0023386641 -0.0036246455 -0.0017749766 0.00066848024 -0.0005707025 -0.0023578552 0.0009565035 -0.0047898083 0.0010484975 0.004727622 -0.0027816754 0.0042025484 -0.003906124 -0.0024137336 0.003956875 -0.0020826312 0.001806038 -0.002023708 -0.0024390595 0.004059948 -0.0030325763 0.0012318249 -0.0039196555 -0.004304056 0.0030267327 -0.002008605 0.0022436322 -0.0024140645 -0.0039366144 0.004550875 0.004660034 0.0038967726 0.0049267355 -0.0037901278 0.0007597188 -0.00051669194 0.0033915704 -0.0041898177 0.0024044262 -0.0018466511 -0.002431262 -0.00010505234 -0.0027824226 -0.004057542 0.0009268439 -0.0015166899 0.00090715627 0.00362263 -0.0039742063 -0.0025467377 -0.003739538 -0.0020601293 0.00086746336 -0.004730188 -0.004836032 -0.0036133444 0.004628664 0.0024745064 0.0014321065 0.0016599257 0.0011428173 0.003770801 -0.0011607873 -0.0017578512 -0.0029304982 -0.00045453713 -0.0032008148 0.003931117 -0.0017870225 0.0048693838 -0.00045946814 0.0043751267 -7.51012e-05 0.00020644907 0.00024111198 -0.003829081 -0.00011562946 -0.0044216863 -0.0013635084 -0.0036327543 0.0017207093 0.002621295 -0.0043157777 -0.0035218012 -0.0019004395 -0.0047116093
成 0.0026714592 -0.00118353 0.0008822736 0.002370969 -0.0011696231 0.0020067096 0.0002996163 0.0034150057 -0.0039231754 0.00077480177 -0.0031644667 0.0037866363 0.0009909889 0.002366742 0.00043033814 -0.0013762206 -0.0022260286 0.0018654371 -0.0027871162 -0.0041648885 -0.0044117398 0.00015116544 -0.0029582093 -0.0006482563 0.002370788 0.0030521182 -0.0016851833 0.0005706826 0.0032870714 -0.0011119128 0.0035418253 0.0049489657 -0.0039290283 0.00073013024 0.0004943554 -0.001969706 -0.003619666 0.0013149856 -0.0019646336 -0.00020622206 -0.0038353014 0.0017775567 -0.0031963272 0.0020712598 0.0034566752 0.0034336394 0.00065942446 -0.00023246626 -0.0041997223 0.0032247365 0.0033928459 -0.004782633 0.0031001437 -0.0008283695 0.0046086907 0.0012175916 0.0028889386 -0.004512477 0.0023713207 -0.0047588684 0.0028803726 -0.0009889682 -0.0044220015 -0.0027321558 0.0014826915 0.0024309212 0.0024746486 0.0014569755 -0.0035402542 0.0042897817 0.004414555 -0.004707038 0.004330428 0.004525619 0.0039345636 -0.0037257767 0.002173885 0.0025897352 0.0028123867 -0.002046068 -0.0021149958 -0.0028725297 0.0001533555 -0.003391432 -0.0006946923 -0.004951278 0.0030331628 0.0008678338 -2.7949378e-05 -0.0031623775 -0.0003831434 -0.0040698773 0.0015144537 -0.0028976977 -0.0025548828 0.0047660535 -0.001781123 0.00010432238 0.0045678862 0.0018065963
关 0.0009263546 -0.0017939374 -0.0046954225 0.003151965 -0.00072089606 -0.0015813473 -0.003505505 -0.003370771 0.0034874736 -0.0010429096 0.0009344369 0.0022476658 0.0034036287 -0.001442931 -0.0036029594 0.0034625768 -0.0048057754 0.004610354 -0.0019408705 -0.0009918194 -0.0031914432 9.482474e-05 0.0006804915 0.0041901693 -0.004054766 -0.0019111995 0.0015857541 0.0015459739 0.003909474 0.0002761441 -0.0046722833 0.0042844075 0.0007095551 0.004415377 -0.0013902764 0.001375654 -0.0035548583 0.0024523127 -0.0009565556 -0.0035085648 -0.0005913075 0.0020772086 0.0040852716 0.004844807 0.0025195556 0.0033345588 0.0015018912 0.0019867313 0.0026603348 0.000513196 0.0036849056 -0.004511527 0.00018735765 -0.0015427992 -0.0021551182 0.0041425023 -0.0019638273 0.0028945494 -0.004191842 -0.0025294393 0.0034810982 0.0020824557 -9.53557e-05 0.004195357 0.0014759931 0.0006221038 0.002874118 -0.0012940232 0.0012165162 0.003729825 0.0044088257 0.0029630805 -0.00013969693 -0.00064417504 0.0029648142 0.0022326284 0.0014823882 -0.0028910935 0.0038536224 0.0032596684 -0.004223687 0.00080249866 0.0018215156 -0.0015427473 0.0007797039 0.0025405528 0.0013234959 -0.0018996742 0.0037671179 -0.0025143465 -0.0014217768 -0.0031396814 0.0034889968 -0.0037910924 -0.003691819 0.0010694066 -0.0037745335 0.0015872528 -0.0034602112 -0.0006542526
发 -0.0010075727 0.00045145815 0.0038758852 -0.0019865313 0.003041812 -0.0036393797 0.0033064003 0.0007900133 -0.00015723698 -0.0019820882 -0.004425525 -0.0005975195 0.00025152188 -0.004481547 -0.0036472548 -0.0005148939 -0.00271213 0.0024310274 0.0007903099 0.0010950145 0.003740796 -0.00042292516 -0.002278725 -0.0021171733 0.0045855553 0.0030641004 0.004361684 -0.00071090995 -0.00049238105 -0.001892737 0.003504515 0.0019425476 -0.0040063374 -0.0023706586 0.0001375866 -0.0044302973 -0.0012788568 -0.002533805 0.00351011 -0.00048883486 -0.0004824012 0.0035922825 -0.0005626975 -0.0008818087 -0.0018307932 -0.0010184031 0.004331684 0.00086920074 -0.0033382578 0.0030736083 0.0030373298 -0.0028521721 -0.002922239 0.003362349 0.0044142576 -0.003445197 -0.0024912814 -0.00434948 -0.00021287208 0.001646987 0.0037031109 -0.0016729231 0.004810261 -0.0014098126 -0.004920728 -0.00038806212 -0.00048287478 -0.0008461154 0.0011319635 0.00067890243 0.003359584 -0.0044004037 -0.0043220436 0.0030920163 0.0013770835 -0.004718996 0.004301967 -0.0040559135 -0.0043008355 0.001298809 -0.0004090711 0.001606228 -0.0011778927 -0.0007967699 -0.0015911056 -0.0013608858 -0.0016292844 -0.0021429064 -0.0007902429 0.0016820871 -0.0034252272 -0.0022916005 -0.0033850055 -0.0048191757 -0.0031338986 -0.004044193 4.188742e-05 0.00074152305 0.0036858758 -0.0028001035
海 0.002471052 -0.0014884069 0.0031043903 0.0019457622 -0.00043979633 -0.002797023 0.0008099192 -0.0007761065 -0.0018101042 0.0014980164 -0.004537214 0.0048187245 0.00022595467 0.0033160157 -0.0031907689 0.0030508614 0.0045335693 -0.0036165733 0.0025015506 0.0013849084 -0.0036851976 -0.0026535061 -0.001930018 0.0015053526 0.0018551135 -0.002541146 0.0014812863 0.0022315783 -0.0012700233 -0.00096178375 -0.0010330526 -0.002278364 -0.0018322306 -0.00086091255 0.00033365158 0.00436394 0.0048958343 -0.0005961627 0.0026366697 -0.0010262353 -0.0014186676 -0.0028063434 -0.00023589616 0.00068850466 0.00034158642 0.0006609676 -0.0036398612 -0.0030948038 0.0023457515 0.002502616 0.0018670066 -0.0014809043 0.001540344 -0.0015909403 0.0022375202 -0.00402816 0.0036803314 -0.00065654237 0.0010251316 -0.0024447562 -0.0020405327 0.00044168322 -0.0046933307 -0.0026422043 -0.0035514608 -0.004852286 0.0008624122 0.0018365502 0.00301653 0.0022889227 -0.0034517492 0.00046771058 -0.003176776 -0.0019822086 -0.0046581086 0.0010656597 0.0015728137 0.0019666443 0.0017897906 0.003107574 0.004477932 -0.004671919 0.0007836346 -0.004463805 0.0031639768 -0.0015903689 -0.0040479777 0.0016468479 -0.0028393168 0.0033459477 0.004729675 -0.0015067573 -0.0034193243 -0.0036097905 -9.313889e-05 0.00380319 -1.3639648e-05 0.003018252 -0.0029359392 0.0021956519
东 -0.00030783468 9.339548e-05 0.004856894 0.0020529092 -0.0005481121 -0.0011332289 0.004063766 0.003746368 -0.0042991918 0.0049396325 0.0042271134 -0.0039170436 -0.0023103629 0.00065045286 -0.0008754456 0.0040562553 -0.00045235298 0.002170884 -0.0037959525 -0.0039068423 -0.0018006257 -0.003986989 -0.000117175965 -0.0042027207 -0.0010524716 0.001466631 0.0023393924 0.0040587406 0.0018160573 -0.004485949 -0.0017313189 0.003345549 -0.0029026766 0.0036339494 -0.0004442782 -0.0012762586 0.0038453478 0.0023361542 -0.004335874 -0.004010542 0.00047280575 -0.00031478496 0.0013375996 0.0026706697 -0.0016188939 0.0047018835 0.0015606127 0.0045018564 0.0048987656 -0.00468854 0.004291708 0.0036693232 -0.0019308983 0.004182749 -0.0038540198 0.0033758106 -0.003078611 -0.0027029375 -0.00058875926 -0.0038829125 0.0035123008 -0.0026500947 -0.0043360926 0.0009680654 -0.0024656467 0.0012517557 0.0037330382 -0.0028660349 0.0034368285 -0.004577714 -0.0048706904 0.0001512793 0.0035228026 0.002729188 0.0016548763 -0.0020856892 -0.0026941444 0.004573205 -0.0035610883 -0.00381158 0.003982018 -0.0039498922 0.002046176 -0.0044013355 -0.0001274757 -0.0046960916 0.003928838 -0.0012316416 0.00018223483 -0.0006077798 0.0020801139 -0.002424958 -0.0022267434 0.0014544923 0.0011834993 -0.0018783454 -0.0031198175 -0.0049177026 0.0015274711 0.0008092098
全 0.0022604286 0.0043043923 0.0023033265 0.000814739 -0.0037093458 -0.00452203 -0.0047790892 0.0028702249 0.004359971 0.0016249001 -0.00058518257 0.0048743286 0.0022261385 -0.0016832844 0.002321545 0.0013935819 0.002210633 -0.0030174633 -0.0040699476 0.0031550378 -0.002144472 -0.0033068506 -0.0022617546 -0.0040934607 -0.003080882 0.0031202075 0.0011641392 0.0043895454 -0.004217257 -0.00043789906 0.00014871355 -0.0039897044 0.002208401 0.0013836055 0.00084290456 -0.001949681 0.0008669704 -0.0010656309 -0.001900319 -0.0041530617 -0.003086878 -0.0026271455 -0.004516524 0.0028151495 -0.0021717208 0.0010833833 -0.0012061794 -0.0028709574 -0.0024012446 0.0019839576 -0.0041583637 0.0021831316 0.0031393564 0.0030774784 -0.0022785116 0.00030022266 0.003964197 -0.0015273956 0.0019301338 0.0028051422 -0.0041159675 -0.0029900619 0.0010306677 0.0035335605 -0.0009620942 0.0040627937 0.0020054157 -0.0024788883 -0.001447786 0.0037374776 -0.0006573932 0.0007489626 0.0034106465 -0.0011954913 -0.0045486046 0.0021970854 -0.0025813018 -0.0039939284 0.0005538249 0.0014328622 -0.0022049616 0.0012702324 -0.0006148973 0.0003364255 0.00037487835 -0.0017819342 0.0035279049 -0.003124531 -0.0017973236 0.004981476 -0.0030503103 -0.004802462 0.0026072925 -0.004383167 0.0021664924 0.004543171 -0.004005187 0.0020785953 -0.0011472799 -0.0027883237
购 -0.0017074011 -0.0015807593 0.0038747725 0.0049398616 -0.00049175037 0.001818975 -0.004599256 0.004038904 0.0011177035 -0.0040527866 -0.002093052 -0.003603713 -0.0036156797 0.0009058601 -0.00094614516 -0.004870096 -0.0004323123 -0.0024597622 -0.00051255466 -0.0023101585 -0.0047923042 0.0042547057 -0.004348637 -0.0035544152 0.0030762777 -0.004435701 -0.0015191395 -0.00045589296 -0.0019390583 -0.0008146661 0.0031307624 -0.004575289 -0.0029176127 0.00052006147 0.0032764224 -0.004987905 -0.004046852 0.0034634494 0.0025405777 0.0027415615 -0.004567481 0.00021004626 0.004931893 0.0018393201 0.0042470093 0.0049432637 0.0018590933 -0.0021948004 -0.00047340486 0.0021472727 -0.0020742356 0.0011641165 0.002123464 -0.0032926502 0.0017688263 -0.0038026706 -0.0006561631 -0.001956003 0.00033158986 0.0032277047 0.004908311 -0.004616194 -0.0011600958 0.0044834213 3.3728218e-05 0.0022751233 0.004510763 0.0011441013 0.0021827898 0.0006345076 0.0010506617 0.0013145722 -0.0013861712 -0.0033088308 -0.0030855213 0.0049411505 -0.0014290839 0.0040192297 -0.00048660257 0.0016117544 0.0010777188 -0.004271401 -0.0037384485 -0.0042417822 0.0024835689 0.004144656 -0.0031827062 -0.0038822964 -0.00033743127 0.004151862 0.0042565977 -0.0032468026 0.0022108613 -0.0010501847 -0.003950282 0.0047378405 0.0016353595 0.000983072 0.0037225701 0.0016112399
新 -0.001124797 0.0005389656 0.0015975034 0.0034566552 -0.0018202305 1.9582172e-05 0.0028251132 -0.001955065 0.0020735275 -0.0026156285 0.0046440125 -0.0036902176 0.00024601267 -0.0031938604 0.0033720103 0.002719027 -0.0028960144 -0.0036324104 -0.0044291364 -0.0047001536 0.004543658 -0.0036911098 -0.0027841926 0.0005569111 -0.0026635495 0.004748574 -0.0004415232 0.00026527268 0.0038667014 0.0035251568 0.0018647457 -0.00031345888 4.781938e-05 -0.0045913146 -0.0017464394 -0.0044182083 0.0030743852 0.0024017198 -0.00015368433 0.00078614533 -0.0010159926 -0.0038490293 0.00065563334 0.002782237 -0.0004512165 0.0018886011 -0.0043426887 0.0037664047 -0.0009102995 0.0020779732 0.0021790103 -0.003476855 0.0012108901 0.00038740414 0.0016028524 -0.004107436 -0.0015131579 0.0035640588 3.702548e-06 0.0037553604 -0.003272537 0.0038451238 -0.0017113488 -0.0009213297 -0.0022927106 0.00410993 -0.0023972208 0.0041243215 -0.002755242 -0.0026751661 -0.001865164 -0.0042080227 0.001177304 0.002160234 -0.0009372263 -0.0011200546 0.001594143 0.004800176 -0.0027419915 0.0012751864 -0.0013150845 -0.0023738279 -0.0005631873 -0.0031302043 0.0013551859 -0.0013953533 0.0017436334 0.0041006184 -0.0033494693 -0.0029902197 -0.0005162788 -0.00034749976 0.0022033171 0.0005064503 0.0022840076 0.0008135714 -0.0026969116 -0.0021190282 -0.0043089762 0.0015532493
其 0.0023405422 -0.004489474 0.003229925 -2.3256533e-05 0.0017312978 -0.004887598 0.004675909 -0.0044960016 0.0032439164 0.002491927 0.0012571651 -0.0048432704 -0.0008480611 0.0024587824 -0.001659231 -0.0040931166 0.004132263 -0.0008613086 -0.004020401 -0.0044393768 0.0017167501 0.00278475 0.0006181989 -0.0040397197 -0.0043287105 0.0028107427 -0.0007755103 -0.0021159456 -0.0007549812 0.0008514024 0.0043244692 -0.00042213165 0.003183102 0.0012251753 -0.0010515873 -0.00016825029 -0.0031308706 -0.0034297665 0.0011547402 -0.004485423 0.00014604616 -0.0013420166 -0.0017222423 -0.00087090547 0.0007356485 0.0045585176 -0.0033717363 2.357536e-05 -0.00034227164 -0.003347528 0.0040434594 -0.003962844 0.00031849515 -0.004362897 0.0013315352 0.0030614715 0.00095146196 -0.0002519041 -0.0028331578 -0.0025591252 0.0036199007 -0.0008812534 0.0031821004 -0.000571727 0.00041174644 -0.002482159 0.0045555388 0.0011591825 -0.0014409416 -0.0023657344 -0.0049044304 -0.0008294733 0.004992127 -0.0010963272 -0.0020322646 -0.0024678276 0.0010552156 0.0017902734 0.0012131012 -0.00014874163 0.00038684878 -0.00016357232 -0.0043017915 0.003941046 -0.00219399 -0.0028661857 -0.0009736825 -0.0044144457 -0.0012572325 0.0024060544 0.003539086 -0.0027545802 -0.004288157 0.0029629471 -0.0012372872 0.00453818 0.0035086055 0.0027498 -0.0033578838 -0.0019393819
转 -0.0027276238 0.0040114867 -0.00496454 0.0025363762 0.0029070545 0.004052128 0.00060585304 -0.0015520677 -0.0033047616 0.0028219505 0.0037965383 -0.0016350705 -0.0018463759 0.0003730863 0.0022272426 -0.00487581 -0.0019489081 -0.0038709932 -0.0020701196 0.0028178908 -0.0013218833 -0.0027528475 -0.00023377973 0.00091625005 -0.0031259872 0.003958737 -0.0036437125 -0.0007245673 -0.003474074 -0.00062040635 0.004374907 0.0020425622 0.0032309964 -0.0039724 -0.0028668193 0.001353183 0.0009879107 0.0041049635 -0.0049482333 0.000116962525 0.0039769835 -0.0043832245 -0.0018115181 -0.0012844384 -0.001749394 0.00465233 -0.0013014029 -0.0015805946 -0.0028172617 -0.0030740832 -0.0048036203 0.0022837855 0.0045328015 -0.004359924 -0.0034066206 -0.0038563942 0.00048013806 -0.0033079034 0.0025701562 0.004375413 -0.0014719296 0.0031650055 0.00088623696 -0.0028739912 0.0035424703 0.0041430607 -0.003732177 0.002863395 -0.0019279752 -0.0026946338 -0.0027033868 0.0019743228 0.0023216137 0.0014672858 -0.0047058193 0.0045489385 0.0017029068 0.004227948 0.0021069793 0.0033248486 -0.0024939047 0.00091856305 -0.0023490356 -0.00062218204 0.0004997523 0.00032690098 0.0033915576 -0.0013452852 0.0005606036 -0.0045257136 7.4138814e-05 -0.0022486164 0.0033762567 0.004234712 0.0041862438 0.002793854 -0.00015882852 -0.0017525284 0.0037403668 0.0014405122
